1000 300
the -0.050502 0.103895 0.026017 -0.228261 -0.051862 -0.111996 -0.098679 0.095194 0.054949 -0.051242 -0.065468 -0.063331 -0.073805 0.167320 -0.008173 -0.031771 -0.204267 0.066784 -0.136269 -0.044277 0.281407 0.186273 -0.092298 -0.007731 0.003307 0.078425 -0.014899 -0.099504 -0.172329 0.006125 -0.029639 0.077785 0.028585 -0.017295 0.112984 0.036967 0.219812 0.126593 -0.006988 -0.021463 0.110421 0.100221 0.068926 -0.133911 0.113657 -0.234438 0.097975 0.055806 -0.068824 0.140358 -0.049545 -0.155361 0.016226 -0.014045 0.020040 -0.179724 0.006935 -0.285548 -0.070064 -0.019417 -0.169371 -0.065450 -0.097944 -0.016107 0.059914 -0.040807 0.125135 -0.022091 -0.042010 0.031410 -0.020445 -0.088310 -0.106954 0.075660 0.124069 -0.107325 0.155217 -0.021277 -0.030807 0.032113 -0.112082 0.226124 -0.014368 0.055280 -0.038382 0.164325 0.210746 0.051329 0.209399 -0.083473 -0.092858 -0.103710 -0.055462 0.054810 -0.097577 0.013033 0.036144 -0.147996 -0.073370 0.024810 0.119382 -0.033381 -0.059603 0.189473 -0.083101 -0.037644 0.052442 0.054609 -0.129547 0.112496 0.170322 0.096041 -0.166980 0.054380 -0.029210 0.021772 0.098710 -0.157775 -0.033235 0.092962 0.043340 0.076684 0.074075 -0.025637 -0.035701 -0.003234 -0.042124 -0.034287 0.134190 -0.014843 0.097063 0.234905 0.066699 0.120873 0.224067 0.142754 -0.148336 0.198849 0.140982 -0.063692 0.003565 0.007462 -0.043468 0.065564 0.025814 0.126116 0.084761 0.040535 0.227463 0.110889 -0.006491 -0.335141 -0.158050 -0.088947 0.072278 -0.115860 -0.199279 0.021089 0.107685 0.111285 -0.115814 0.039049 0.065942 0.209860 0.003705 -0.017744 -0.015011 -0.046511 0.148472 -0.014915 0.274063 -0.052872 -0.124321 -0.127980 0.003132 0.081585 -0.036045 -0.003360 -0.030011 -0.019348 0.037198 0.077508 -0.074510 0.041713 -0.225952 0.081698 -0.020287 0.050509 -0.072417 -0.147895 0.028221 -0.017357 -0.003002 0.009099 0.025741 -0.107765 -0.078165 0.196798 -0.010932 0.094938 0.079045 -0.044597 -0.049731 -0.101899 -0.095864 -0.069773 0.087685 0.140147 -0.012662 0.126878 -0.117568 -0.018999 -0.065486 -0.038502 -0.123478 0.057895 -0.169351 -0.003578 -0.071142 -0.045876 0.165761 0.086292 0.140157 -0.097428 0.049346 -0.067581 -0.163980 -0.034339 0.084024 0.095603 0.014915 -0.147440 -0.121130 0.005596 -0.077029 0.105556 -0.149228 -0.020568 0.102731 0.142749 0.041901 -0.000175 0.080681 0.224180 -0.069105 -0.098296 -0.081014 0.094443 0.057606 -0.018572 -0.019783 0.024500 0.044820 -0.110326 -0.036052 0.098581 -0.018292 0.243181 -0.122565 -0.075160 0.004024 -0.056819 0.078428 -0.142853 0.177808 0.154538 0.085317 -0.093084 0.027234 -0.099332 -0.034361 0.101548 -0.004452 -0.080815 -0.217421 -0.054095 -0.044081 -0.022780 -0.055075 0.207153 0.022583 -0.136617 -0.036458 -0.138653 0.159024 -0.089051 -0.038914 -0.091593 -0.034832 0.032804 -0.044429 -0.079553 -0.086189 -0.072240 -0.043736 0.010728 -0.101097 -0.032417 0.131433 -0.123080
, -0.029931 0.172765 0.007893 -0.214965 -0.155764 -0.100868 -0.111085 0.083169 0.101305 -0.066232 -0.144010 -0.029806 0.025541 0.104213 -0.026226 -0.044834 -0.153196 0.041739 -0.112153 -0.041011 0.177602 0.096452 -0.083386 0.062942 -0.033040 -0.025114 -0.053423 0.031916 -0.197113 -0.014465 -0.008138 0.010641 0.006675 0.022428 0.130841 -0.031839 0.220864 0.133512 0.140933 -0.082394 0.148430 0.042044 0.062715 -0.060513 0.183415 -0.160315 0.074388 -0.021146 -0.064485 0.167766 -0.091324 -0.168824 0.040912 0.070972 0.025953 -0.098483 -0.008155 -0.190589 -0.187648 0.055602 -0.152735 -0.146916 -0.108352 0.106885 0.005844 0.038277 0.081252 0.007012 0.022305 0.126127 -0.056757 -0.100869 -0.128519 0.059422 0.087268 -0.064264 0.145071 0.042383 -0.038075 0.043383 -0.079783 0.197862 -0.018209 0.051207 0.025458 0.129905 0.159113 0.064093 0.190220 -0.088496 -0.011183 -0.068343 -0.042396 -0.035748 -0.122708 0.055311 -0.063067 -0.054481 0.046707 -0.131953 0.049909 -0.000561 -0.035542 0.120341 -0.079630 -0.168620 0.128949 0.086330 -0.131475 0.090631 0.093478 0.015632 -0.097177 0.066936 -0.001007 0.064478 0.033429 -0.071086 0.038425 0.018710 0.046630 -0.011377 0.103301 -0.177875 -0.069499 -0.132415 -0.024953 -0.002475 0.142292 -0.085090 0.129703 0.185007 0.025816 0.071281 0.151684 0.126007 -0.094409 0.097931 0.099194 -0.007428 -0.029951 0.035125 -0.093874 -0.047097 0.048722 0.105458 0.107217 0.009011 0.161974 -0.088307 -0.063894 -0.204108 -0.157142 -0.031438 0.091283 -0.107932 -0.169391 0.020051 0.087604 0.099776 -0.038025 0.014006 0.128795 0.162077 0.095488 -0.053616 0.000499 -0.052104 0.032168 0.023186 0.185948 -0.119033 -0.141645 -0.099629 0.000691 0.139600 0.012845 0.028155 -0.090390 0.015096 0.105489 0.087136 -0.033054 -0.000796 -0.182591 0.120776 -0.130081 -0.019634 -0.044696 -0.140626 -0.031285 0.061000 -0.008417 -0.034111 -0.059086 -0.142943 0.015251 0.145391 -0.091021 0.175302 0.067883 -0.145250 -0.078315 -0.049953 -0.001960 0.022922 0.059376 0.059795 -0.100863 0.157052 -0.011714 0.069738 -0.043299 0.035712 -0.058662 0.008502 -0.120990 0.026500 -0.078765 -0.069263 0.146636 0.086074 0.110821 -0.115560 0.022983 0.030425 -0.116998 0.138392 0.075443 0.035130 -0.052171 -0.205166 -0.117754 0.028313 -0.090590 -0.014532 -0.104560 0.086699 0.033800 0.148874 0.023361 0.038236 0.015354 0.225018 0.009330 -0.118959 -0.105401 0.072273 0.099997 0.058557 -0.068313 -0.066299 0.030645 -0.046570 0.052594 0.156037 -0.063117 0.192871 -0.120543 0.150196 0.054079 -0.070866 0.034493 -0.082850 0.187335 0.092069 0.079922 -0.150828 -0.022232 0.022993 0.020035 0.051030 -0.020254 -0.096134 -0.282692 -0.058285 -0.137555 0.006587 -0.090005 0.119705 -0.016262 -0.156161 -0.034104 -0.143841 -0.021438 -0.064813 -0.007163 0.042371 0.090248 0.039429 -0.006469 -0.005995 -0.010656 -0.106562 -0.048372 0.001698 -0.100366 -0.020356 0.056626 -0.109552
. -0.051521 0.142452 0.028470 -0.197330 -0.082427 -0.092302 -0.139834 0.090822 0.084910 -0.045582 -0.086105 -0.061174 -0.091387 0.080967 0.011210 -0.068336 -0.198669 0.055009 -0.104813 -0.113152 0.218174 0.141427 -0.138959 0.066868 -0.059769 0.047863 -0.119814 -0.036351 -0.199391 -0.000219 -0.019912 0.039687 -0.005566 -0.019076 0.123211 -0.005011 0.212020 0.064279 0.103500 -0.033335 0.111671 0.067908 0.039221 -0.075626 0.159132 -0.198268 0.135486 0.019783 -0.109150 0.144036 -0.053870 -0.142780 0.049038 0.077827 -0.002935 -0.161384 0.042308 -0.264576 -0.165301 -0.012607 -0.158554 -0.117359 -0.153905 0.077230 0.036979 0.017185 0.106450 -0.032177 -0.001372 0.095958 -0.063445 -0.108337 -0.125251 0.064169 0.077089 -0.092069 0.083895 -0.004423 -0.100981 -0.001647 -0.073116 0.212427 -0.026783 0.098784 -0.018990 0.145860 0.225539 0.040470 0.202295 -0.064261 -0.054632 -0.078130 -0.040335 -0.002174 -0.139366 0.019796 0.006153 -0.114719 0.015741 -0.049217 0.097126 -0.061569 -0.011291 0.157134 -0.084955 -0.056357 0.117542 0.071525 -0.147780 0.074318 0.098222 0.039728 -0.124467 0.052502 -0.024457 0.068174 0.073295 -0.151790 -0.017285 0.021949 0.065293 -0.019716 0.080472 -0.103616 -0.120657 -0.075686 -0.038778 -0.021528 0.171848 -0.084145 0.136126 0.199237 0.112404 0.068822 0.183367 0.110810 -0.149062 0.097950 0.083022 -0.068113 -0.033182 -0.009811 -0.052515 0.028027 0.013610 0.121499 0.075775 0.002068 0.162798 0.018480 -0.033842 -0.261916 -0.134319 -0.039453 0.083222 -0.123491 -0.160108 -0.016710 0.078542 0.105569 -0.086588 -0.017005 0.123662 0.171550 0.049398 -0.020469 0.006925 -0.070271 0.065780 -0.016753 0.267700 -0.070145 -0.125623 -0.131731 -0.004522 0.108015 -0.006141 -0.003168 -0.024795 0.002183 0.067487 0.159772 -0.044616 0.057181 -0.165389 0.137284 -0.072290 0.062210 -0.083147 -0.126808 -0.008850 0.018910 -0.060268 -0.015636 -0.040470 -0.105852 0.024013 0.166367 -0.029904 0.122024 0.090415 -0.126153 -0.055453 -0.073395 -0.026665 -0.000873 0.079808 0.099768 -0.102977 0.140693 -0.055484 0.046784 -0.079187 0.026526 -0.118539 -0.003609 -0.122432 0.008250 -0.068126 -0.056039 0.163729 0.054375 0.110883 -0.107954 0.063027 -0.023896 -0.116197 0.102949 0.041347 0.025464 -0.009847 -0.184300 -0.120217 -0.008475 -0.023371 0.099017 -0.116231 0.025401 0.058114 0.179477 0.095714 -0.006215 0.032293 0.201474 -0.033025 -0.145889 -0.091466 0.083927 0.094061 0.037234 -0.018867 0.018541 0.031125 -0.092618 0.029053 0.169882 -0.094717 0.217959 -0.099248 0.060532 0.034512 -0.096894 0.053450 -0.083295 0.199584 0.129348 0.100233 -0.100593 -0.053157 -0.043155 0.008436 0.059675 0.022730 -0.155608 -0.262547 -0.039941 -0.075347 -0.012919 -0.063183 0.193903 0.048888 -0.172975 -0.056818 -0.200589 0.072139 -0.091452 -0.028258 -0.011453 -0.020678 0.063054 0.009157 0.001749 -0.009951 -0.109384 -0.101687 -0.008463 -0.105893 0.012158 0.095285 -0.094634
of 0.014100 0.120381 -0.011437 -0.220619 -0.105619 -0.038832 -0.161383 0.102196 0.115827 -0.022808 -0.101701 -0.125262 -0.018583 0.076115 -0.089688 -0.030544 -0.175357 -0.039528 -0.114271 -0.105218 0.280605 0.124974 -0.113724 -0.009827 -0.018056 0.092019 -0.064426 -0.057570 -0.142992 0.059038 -0.083112 0.003978 0.030138 0.059146 0.141280 0.072719 0.142083 0.037008 -0.009591 -0.080064 0.139912 0.124054 0.029928 -0.099332 0.150445 -0.150496 0.142358 -0.017628 -0.076576 0.146566 -0.045190 -0.139478 0.017689 -0.049680 -0.001477 -0.176605 0.087567 -0.221622 -0.123350 -0.075706 -0.128295 -0.029347 -0.078744 -0.026549 0.084871 -0.001535 0.235055 -0.094267 -0.026374 0.103818 -0.009565 -0.089372 -0.035024 0.091828 0.140922 -0.118989 0.158215 -0.020013 -0.035415 0.088959 -0.142030 0.151388 0.004787 -0.033770 -0.014132 0.238017 0.187676 0.032878 0.190516 -0.046368 -0.086914 -0.095651 -0.077617 0.002021 -0.165525 0.054006 -0.034257 -0.086291 -0.069931 -0.043527 0.051372 0.025557 -0.002580 0.110933 -0.016666 -0.049390 0.016886 0.084267 -0.098068 0.149865 0.088186 0.077527 -0.099604 0.062967 0.048714 0.112885 0.062789 -0.103035 0.021265 0.080925 0.056599 0.055092 0.085174 -0.103129 -0.151856 0.010175 -0.085207 -0.028964 0.087053 -0.084172 0.144505 0.142952 0.036762 0.112348 0.211224 0.138172 -0.135299 0.213082 0.155819 -0.024557 -0.018982 -0.063979 -0.085708 0.041462 -0.039145 0.177220 0.108678 0.046897 0.300140 0.124986 0.008159 -0.284307 -0.183758 -0.074620 0.039681 -0.098110 -0.191642 0.071740 0.125903 0.164821 -0.032691 -0.000155 0.114068 0.213535 -0.014126 -0.081603 -0.073341 -0.013505 0.165693 0.045372 0.224445 -0.016781 -0.062824 -0.099755 0.027737 0.108650 -0.016200 0.054707 0.004973 -0.049418 0.045989 0.065218 -0.031715 0.049188 -0.245678 0.110218 -0.058577 -0.021946 -0.111505 -0.099164 0.019741 0.016256 -0.024902 -0.044291 -0.031421 -0.127835 -0.054972 0.175356 -0.020784 0.208717 0.131203 -0.168497 0.032084 -0.057142 -0.068924 -0.020143 0.101928 0.106233 -0.056224 0.145837 -0.059199 -0.003330 -0.044281 0.070272 -0.090809 0.048391 -0.185636 -0.037454 -0.113494 -0.016042 0.160320 0.117606 0.205264 -0.048144 0.115345 -0.068381 -0.103526 -0.067549 0.122700 0.143696 0.015394 -0.062258 -0.106502 -0.052986 -0.169219 0.120609 -0.161833 -0.063186 0.142679 0.177677 0.010070 0.014758 0.052344 0.180473 -0.009845 -0.172256 -0.071567 0.047449 0.005869 -0.055532 -0.032176 0.032124 0.025486 -0.054523 -0.015059 0.103276 -0.052647 0.292355 -0.022913 0.019252 -0.047666 -0.064379 0.033803 -0.157100 0.237945 0.109247 0.165775 -0.112206 -0.057901 -0.087242 -0.062446 0.121484 0.078734 -0.126963 -0.244255 -0.029924 -0.045598 -0.046755 -0.026354 0.143886 -0.043520 -0.089788 -0.003819 -0.151224 0.087306 -0.101981 -0.075407 -0.061963 0.052093 0.070137 -0.115353 -0.062293 -0.059143 -0.105165 -0.057339 -0.004607 -0.114590 0.032501 0.136311 -0.116653
and -0.001096 0.156225 0.015626 -0.194724 -0.135302 -0.033148 -0.166014 0.110532 0.124869 -0.076495 -0.062272 -0.117180 -0.006474 0.087375 -0.056853 -0.073756 -0.172279 0.023916 -0.113414 -0.065249 0.233864 0.058247 -0.077481 0.038573 -0.040118 -0.021182 -0.024668 -0.021180 -0.241430 0.003949 -0.026388 0.086448 -0.001363 0.009187 0.120450 0.005483 0.241377 0.087693 0.148349 -0.034560 0.130768 0.116126 0.086183 -0.040624 0.188611 -0.213787 0.138926 -0.040399 -0.030858 0.171008 -0.072126 -0.170395 0.017921 0.039423 -0.024042 -0.164785 0.073031 -0.245187 -0.185599 0.036237 -0.125350 -0.147499 -0.163902 0.076753 0.025908 0.046419 0.041521 -0.023401 0.003623 0.108345 -0.018328 -0.081113 -0.097165 0.019043 0.086854 -0.054301 0.119139 0.074294 -0.025226 0.017499 -0.060044 0.254938 -0.007214 0.010624 0.015445 0.134423 0.228725 0.005594 0.208452 -0.036740 -0.027533 -0.108360 -0.136373 -0.039749 -0.092505 -0.007145 -0.054825 -0.042992 0.005141 -0.136838 0.094043 0.011217 0.006114 0.129650 -0.093409 -0.166136 0.058490 0.098441 -0.261343 0.069111 0.088066 -0.029426 -0.137012 0.110926 -0.054368 0.054242 0.013459 -0.093573 0.112111 0.015287 0.057906 -0.007203 0.120777 -0.186683 -0.104293 -0.116936 -0.064571 0.019145 0.130728 -0.083407 0.119020 0.240485 0.041336 0.022918 0.102428 0.121484 -0.138660 0.106287 0.099594 0.015839 0.010534 0.010201 0.014792 -0.008819 0.010287 0.112484 0.054862 0.075254 0.118844 -0.013453 -0.055818 -0.232387 -0.113992 -0.043651 0.054730 -0.097221 -0.118333 -0.034897 0.115541 0.033270 -0.018763 0.004383 0.150392 0.121312 0.067386 -0.035182 -0.082013 -0.038662 0.089184 0.042382 0.234736 -0.040537 -0.130670 -0.099068 -0.016228 0.109075 -0.032804 0.025072 0.009396 -0.040535 0.085054 0.093144 -0.027015 -0.010689 -0.150602 0.078541 -0.136021 -0.019904 -0.138957 -0.146606 -0.059870 0.022101 -0.032267 -0.003373 -0.093162 -0.132715 -0.081520 0.132682 0.007377 0.164673 0.056215 -0.151782 -0.007404 -0.112160 0.014972 0.051784 0.089926 0.051451 -0.085148 0.184316 -0.013965 0.090956 -0.019461 0.011902 -0.018840 0.011294 -0.086786 0.039453 -0.106119 -0.009863 0.117979 0.078610 0.144792 -0.141220 0.037499 0.047573 -0.110899 0.103115 0.083485 0.033964 -0.040277 -0.183723 -0.127307 0.024008 -0.085245 0.066292 -0.074842 0.055581 0.058631 0.118128 0.049794 0.039828 0.015731 0.233134 0.010197 -0.162770 -0.114071 0.087621 0.095932 0.061706 -0.052698 -0.072316 -0.039219 -0.060026 -0.010200 0.153886 -0.041746 0.188202 -0.161648 0.100398 0.059416 -0.107287 -0.005198 -0.050333 0.203506 0.101175 0.112173 -0.137525 -0.052012 0.026483 0.053631 0.059919 -0.033153 -0.146747 -0.325449 -0.015509 -0.087916 0.001049 -0.118506 0.110903 0.010273 -0.140641 -0.059827 -0.139644 0.015248 -0.074279 -0.003707 -0.012870 0.066375 0.014607 0.005077 0.023409 0.009016 -0.092782 -0.062229 -0.029600 -0.121361 0.066297 0.018488 -0.062338
in -0.122869 0.173628 -0.026280 -0.248045 -0.148738 -0.163906 -0.199873 0.027996 0.033942 -0.108719 -0.072931 -0.131111 -0.038607 0.029391 -0.007180 0.011618 -0.201307 0.042038 -0.184072 -0.173795 0.201306 0.222051 -0.146405 0.025804 -0.115601 -0.047345 -0.107634 -0.058656 -0.242204 -0.007071 -0.057648 -0.023332 0.010471 0.032092 0.139259 -0.000751 0.210742 -0.022785 0.098263 -0.095955 0.158258 0.012112 0.057394 -0.086606 0.184363 -0.201286 0.137037 0.054507 -0.143523 0.160278 -0.104195 -0.179582 0.114034 0.012214 0.015025 -0.199541 -0.034386 -0.292444 -0.107321 0.021799 -0.150929 -0.131416 -0.062342 0.043468 0.075307 -0.008585 0.159069 0.018891 -0.058086 0.016223 -0.025681 -0.095188 -0.154071 0.110587 0.090069 -0.113330 0.118496 -0.058387 -0.098581 0.029118 -0.105543 0.194501 0.013530 0.083052 -0.054853 0.233289 0.175820 0.088591 0.170649 -0.049086 -0.031002 -0.089471 0.059267 0.013880 -0.213824 0.017378 0.009925 -0.134488 0.012632 -0.020943 0.127106 -0.064774 -0.086825 0.222687 -0.071694 -0.021626 0.156602 0.192677 -0.123353 0.132278 0.087457 0.058693 -0.129961 0.067438 0.029300 0.089952 0.062723 -0.133484 -0.110837 0.024769 0.109320 0.019279 0.041983 -0.112980 -0.073174 -0.082445 -0.055211 -0.045201 0.137580 -0.132195 0.106362 0.195597 0.117191 0.127716 0.145077 0.082194 -0.107382 0.065514 0.062588 -0.061400 0.020477 -0.005387 -0.126015 0.003130 -0.012693 0.154935 0.111211 -0.021121 0.228635 -0.007943 -0.026597 -0.246089 -0.150976 -0.089054 0.058912 -0.131243 -0.188606 -0.039254 0.071360 0.074117 -0.045723 -0.009842 0.093077 0.221838 0.106710 0.048169 0.047548 -0.062275 0.054443 -0.002002 0.165564 -0.102585 -0.149388 -0.071046 -0.090274 0.056519 0.056821 -0.034509 -0.053388 0.028749 0.033597 0.194854 -0.099112 0.027421 -0.250126 0.097366 -0.117329 0.035712 0.021798 -0.179473 0.014452 0.098586 -0.047392 -0.027546 -0.060745 -0.112287 -0.030863 0.286608 -0.081021 0.086888 0.059577 -0.093711 -0.050898 0.009827 -0.075010 0.013619 0.106420 0.107862 -0.088031 0.149753 -0.060595 0.015703 -0.107442 0.097874 -0.152723 0.062958 -0.030975 0.008741 -0.065936 -0.144123 0.180965 0.077806 0.067045 -0.118330 0.077219 -0.001337 -0.158832 0.018709 0.037899 -0.047527 -0.005084 -0.145380 -0.184543 0.062920 0.008123 0.124514 -0.126454 0.003920 0.016764 0.163268 0.148483 -0.004445 0.155565 0.191130 0.056925 -0.117656 -0.046599 0.068104 0.063229 -0.043020 -0.032845 0.053974 -0.038253 -0.037040 -0.010857 0.163266 -0.155347 0.186288 -0.080327 0.016430 -0.015250 -0.089437 0.074068 -0.106337 0.170925 0.133651 0.143198 -0.049559 -0.047409 -0.114434 0.025315 0.045905 0.042900 -0.123632 -0.200191 -0.076499 -0.082229 0.006702 -0.007494 0.181263 0.064943 -0.164405 -0.049748 -0.226755 0.161325 -0.065493 -0.028286 -0.056978 -0.034945 0.075537 -0.015204 0.003615 0.060510 -0.146033 -0.076959 0.037390 -0.103662 -0.022625 0.075786 -0.150734
a -0.027696 0.154942 -0.002055 -0.275003 -0.083155 -0.035051 -0.094008 0.047209 0.148744 0.016474 -0.140525 -0.124284 -0.072047 0.100678 -0.099572 -0.041529 -0.233221 0.049318 -0.159784 -0.043545 0.329006 0.198765 -0.248633 0.073305 0.073530 0.050489 -0.047114 -0.091198 -0.203094 -0.022787 -0.036339 0.014345 -0.063159 0.088326 0.175372 0.011210 0.213467 0.009091 -0.024279 -0.023549 0.064208 0.024121 -0.029594 -0.092110 0.158019 -0.170395 0.073497 0.049182 -0.256679 0.150446 -0.040191 -0.137330 0.071106 0.102133 -0.018530 -0.122832 -0.079259 -0.256026 -0.066710 0.063393 -0.096520 -0.058668 -0.121653 0.061950 -0.060786 -0.032010 0.147856 0.141572 -0.014516 -0.022281 -0.038117 -0.133649 -0.097546 0.034049 0.091984 -0.168277 0.086303 -0.075895 -0.041493 -0.060400 0.017586 0.175801 0.047170 0.003968 0.083331 0.102873 0.139003 0.198416 0.222435 -0.068989 -0.140459 -0.172900 -0.062111 0.077607 -0.136805 0.028372 0.040966 -0.131830 -0.036937 -0.025043 0.111571 0.017422 -0.010954 0.175507 -0.049572 -0.111061 0.153954 0.294794 -0.133143 0.044088 -0.043386 0.042173 -0.149870 0.038455 -0.010761 0.062310 0.103467 -0.167246 0.043903 0.048992 0.031342 0.067260 0.091094 -0.091887 -0.179450 0.122174 0.023926 -0.029562 0.126721 -0.080571 0.162330 0.198169 0.144277 0.005490 0.252928 0.183749 -0.187982 0.086347 -0.004167 -0.049838 0.065251 -0.011090 -0.069427 -0.101967 -0.097963 0.203555 -0.023252 -0.000535 0.107196 -0.001859 -0.211116 -0.236006 -0.141371 -0.046021 0.204449 -0.075596 -0.125633 0.003135 0.101580 0.144401 -0.087997 0.010972 0.118354 0.142898 -0.026956 -0.059486 -0.021831 0.024031 0.117951 -0.005861 0.240189 -0.018486 -0.085794 -0.267390 0.076631 0.112977 -0.033679 -0.072565 0.020512 -0.057215 0.072737 0.059071 -0.020155 0.044447 -0.166240 0.104681 0.013418 0.087802 -0.103765 -0.209043 0.051103 0.082697 -0.046419 -0.109360 0.009001 -0.066091 0.000565 0.200999 -0.160295 0.105728 0.089596 -0.121874 -0.122912 -0.054269 -0.143222 -0.061678 0.072083 0.105805 -0.156574 0.275783 -0.105076 0.062372 -0.056828 -0.042116 -0.198958 0.046695 -0.192301 0.037400 0.016391 -0.056995 0.252578 0.014052 0.113752 -0.000356 0.010774 -0.090339 -0.149081 0.012960 0.024210 0.023609 -0.004631 -0.218496 -0.125602 0.066660 -0.001867 0.047061 -0.119742 -0.071930 0.007426 0.140423 0.049257 0.016186 -0.097491 0.105107 -0.080767 -0.087172 0.031166 0.062280 0.101095 0.112826 -0.018342 0.113220 -0.055526 -0.110304 0.120086 0.140626 0.023873 0.161894 -0.016733 -0.068702 0.000339 -0.004963 0.106570 -0.000082 0.227811 0.206962 0.040381 -0.063779 -0.119390 -0.150612 -0.032041 0.074391 -0.012227 -0.126361 -0.187019 -0.134808 -0.014982 -0.107573 -0.039825 0.219386 -0.028316 -0.028668 0.016101 -0.207545 0.088242 -0.086831 -0.058217 -0.021496 -0.042081 0.058722 -0.043737 -0.034667 -0.000887 -0.091519 -0.110445 -0.028187 -0.141064 0.024182 0.069467 0.015799
to -0.040544 0.066814 0.083985 -0.307417 -0.158544 -0.050074 -0.068822 0.100325 0.101116 -0.038507 -0.006720 -0.079875 0.091896 0.091856 -0.047296 -0.061417 -0.179976 0.029248 -0.189916 -0.105278 0.218174 0.231065 -0.117948 -0.055495 -0.057541 0.026401 0.015647 -0.044101 -0.285848 0.008060 -0.073570 0.061909 -0.099758 -0.085550 0.225422 0.028301 0.346513 0.075596 0.146149 -0.038364 0.088357 0.000926 0.102993 -0.126919 0.108472 -0.093584 0.095421 0.076053 -0.033503 0.144822 0.023931 -0.069792 -0.025185 -0.026431 -0.122322 -0.125712 -0.013035 -0.260286 -0.067193 -0.149954 -0.034722 -0.150356 -0.140127 0.176427 0.005025 -0.014066 0.200353 -0.063914 0.047300 0.122069 0.056617 -0.070625 -0.272928 0.057423 0.078917 0.019182 -0.003598 0.048568 -0.055908 -0.068796 -0.156045 0.115999 0.018568 0.060826 -0.096332 0.159171 0.119106 -0.008453 0.169701 -0.031914 -0.027922 -0.170885 -0.049289 -0.021786 -0.191143 -0.003000 -0.022338 -0.050028 0.061247 -0.010518 0.208147 -0.095727 0.016643 0.209623 -0.101441 -0.088798 0.040605 0.135056 -0.075611 -0.050450 -0.049393 0.080095 -0.193657 0.134733 -0.154632 -0.001437 0.021515 -0.109080 0.080819 0.117804 0.029939 0.016898 0.290543 -0.033529 -0.109106 0.008970 -0.040180 0.090144 0.194790 -0.079994 0.129600 0.072056 0.103620 0.038330 0.100429 0.126970 -0.064073 0.117030 0.171379 -0.035434 0.005476 0.069995 0.020939 0.071434 -0.001234 0.091351 0.017375 -0.069627 0.057820 0.024020 -0.145163 -0.123129 -0.073550 -0.138966 0.005079 -0.138242 -0.058503 -0.072925 -0.036684 -0.024769 0.026267 -0.012756 0.080303 0.110798 0.020485 -0.089949 0.083478 -0.162880 0.195919 -0.087916 0.202264 -0.083301 -0.112985 -0.111808 -0.009372 -0.022091 -0.060705 -0.079677 -0.009917 0.100526 -0.030144 0.098537 -0.108258 0.088647 -0.157465 0.151561 -0.049914 0.078669 -0.071212 -0.052118 0.050392 0.130033 -0.006898 0.059954 0.013464 -0.100226 -0.012606 0.208208 0.088135 0.009661 0.078304 -0.119287 -0.039799 -0.116708 -0.044546 -0.199819 0.038047 0.006751 -0.068214 0.152191 -0.079386 0.081656 0.000120 -0.021023 -0.074383 0.072094 -0.105240 -0.027615 -0.014344 0.014617 0.166575 0.046153 0.027434 -0.044538 0.023299 0.027439 -0.103014 0.172224 0.090003 0.022337 0.013165 -0.116580 -0.043351 0.059101 -0.096171 0.156402 -0.104659 0.085295 0.111553 0.030072 -0.025786 -0.065437 0.012469 0.095596 -0.004730 -0.107633 -0.047821 0.044700 0.130269 0.080709 0.008231 -0.077017 -0.041781 0.036552 -0.095145 0.023831 0.023640 0.241668 -0.058552 0.035789 -0.016481 -0.131449 0.181550 -0.155191 0.254216 0.037966 -0.005652 0.079423 -0.079593 0.074643 0.048249 0.150520 -0.116194 -0.165272 -0.327354 -0.084635 -0.042689 0.000856 -0.011365 0.045861 0.161733 -0.207953 -0.034662 -0.158741 0.152203 -0.050301 -0.058750 -0.011969 -0.044522 0.082421 -0.004235 0.008422 -0.093707 -0.066141 -0.100092 0.121567 -0.048354 -0.032620 0.085410 -0.129236
was -0.000695 0.079493 0.055588 -0.156354 -0.060760 -0.087053 -0.168531 0.021359 -0.080606 -0.107517 -0.030876 0.018750 0.081153 0.147832 0.024717 0.003654 -0.274090 -0.037682 -0.175948 0.003297 0.220813 0.261912 -0.115972 0.020611 -0.069440 0.013183 -0.049554 -0.107386 -0.122351 -0.065246 0.043620 -0.061174 0.032737 0.101239 0.080873 -0.029980 0.202131 0.081535 0.074687 -0.081537 0.204376 0.000177 -0.072353 -0.065693 0.134929 -0.190946 -0.016816 0.047748 -0.141749 0.178063 -0.061030 -0.158879 0.144680 0.166442 -0.003744 -0.170222 0.005459 -0.292502 -0.122003 0.061884 -0.221718 -0.192427 -0.036562 0.012266 -0.053909 0.029708 0.308087 -0.089578 -0.054235 0.031902 0.009397 -0.126059 -0.093850 0.062346 0.045285 -0.225786 0.063828 -0.038818 -0.164175 0.022350 -0.094330 0.229545 0.040428 0.147795 0.204559 0.210626 0.229728 0.253050 0.238127 -0.109918 -0.144641 0.114575 0.070862 0.165121 -0.082787 -0.073923 0.080276 -0.139543 -0.053220 0.083543 0.216490 0.025569 -0.009357 0.176233 -0.055022 -0.059017 0.189639 0.101652 -0.103112 0.082610 0.113495 0.127557 -0.107243 -0.036693 -0.112707 0.162600 0.009333 -0.106565 -0.112366 -0.009645 0.193979 0.011411 0.210160 -0.014085 -0.114158 0.111768 -0.043792 -0.111244 0.139456 -0.103864 0.013256 0.138575 0.188695 0.108840 0.171069 0.134605 -0.050690 -0.040112 0.097819 -0.153997 0.027225 0.033344 -0.059290 0.085236 0.054268 0.230915 -0.021976 0.004204 0.165953 -0.013031 -0.099518 -0.186606 -0.156568 -0.231402 0.106443 -0.048619 -0.144954 -0.194886 0.083857 0.061716 -0.075039 -0.012874 0.045088 0.113209 -0.072166 0.089688 0.015062 -0.018196 -0.013018 -0.067262 0.184809 -0.045696 -0.184052 -0.137591 -0.195235 0.066962 0.054054 0.032787 -0.039938 -0.046709 0.113940 0.114970 0.014183 0.067092 -0.173330 0.082557 -0.139849 0.151154 0.047659 -0.229643 0.132319 0.201846 -0.024527 -0.012372 -0.028448 0.036660 -0.006222 0.208005 -0.056921 0.151302 0.013662 -0.010842 -0.080529 -0.060035 -0.131606 -0.079804 0.112291 0.081993 -0.064970 0.104438 -0.202143 0.003269 -0.113595 0.116833 -0.183636 0.107354 -0.238456 0.000789 -0.155297 -0.014688 0.187487 0.048887 0.050255 -0.146368 0.124479 -0.022684 -0.030758 -0.094036 0.133599 0.049921 -0.094543 -0.188993 -0.124308 0.056719 0.094708 0.051326 -0.064164 -0.122501 0.061199 0.182291 0.068440 -0.110484 0.063003 0.180812 -0.098030 -0.026212 -0.051719 0.119736 0.031538 0.090483 -0.000376 -0.000790 -0.017942 -0.067310 -0.062214 0.117040 -0.044063 0.064084 -0.151336 0.043606 -0.064378 -0.147434 0.109511 0.006142 0.167495 0.053144 0.062047 -0.066788 -0.175883 -0.065599 -0.075196 -0.040662 0.026687 -0.038650 -0.132728 -0.186703 -0.092988 0.139875 -0.040273 0.237045 -0.019392 -0.103571 0.000448 -0.279479 0.006692 -0.090598 -0.126167 0.044567 -0.035893 0.155740 -0.123179 -0.034880 0.087426 -0.000088 -0.098954 0.067064 0.025327 -0.112533 0.147801 -0.037437
'' 0.006230 -0.036225 -0.113941 -0.215199 -0.176822 0.115766 -0.071319 0.181001 0.260343 0.017310 -0.063362 -0.133107 0.088496 0.109029 -0.047666 -0.049228 -0.077213 0.020351 -0.112553 -0.046301 0.278834 -0.025610 0.019445 -0.103161 -0.065647 0.048189 -0.158400 0.042982 -0.281371 0.051414 0.242960 -0.008765 0.063082 0.113596 0.223584 0.051056 0.249258 0.076285 -0.101583 -0.026036 0.081122 -0.085037 0.095746 -0.109340 0.202210 0.004129 -0.106463 -0.047482 -0.166753 0.141540 0.153584 0.067077 -0.083228 -0.006310 0.016391 0.040980 -0.142423 -0.121855 -0.151873 0.017550 0.056172 -0.217212 -0.128964 0.068968 -0.027005 -0.019444 0.036362 -0.007741 -0.037155 0.077060 -0.147738 -0.091444 -0.141177 0.187748 0.174527 -0.161502 0.251422 0.147638 0.048520 0.057339 -0.108407 0.047858 -0.122440 0.097449 0.050226 0.171354 0.109060 -0.028771 0.115750 -0.231583 -0.154178 -0.119189 0.020815 -0.021939 0.167395 -0.087112 -0.204949 -0.040469 -0.052327 -0.116237 -0.111546 0.215827 -0.040596 0.099082 0.046046 -0.183824 0.123067 -0.000621 -0.183859 -0.061272 0.128530 0.080778 -0.017055 -0.021910 0.072456 -0.036481 0.102705 -0.159943 0.022292 -0.064305 -0.070487 0.046860 0.142050 -0.182187 -0.005649 0.051149 0.122203 0.027430 0.211956 0.037176 -0.069630 0.109175 0.266792 0.110902 0.393487 0.285741 -0.108108 0.045234 -0.015179 0.147295 -0.033883 0.158065 -0.195813 -0.000048 0.161579 0.005423 -0.009255 -0.001914 0.088667 -0.079535 -0.149241 -0.237136 -0.107781 0.131246 0.314841 -0.066103 -0.055586 -0.013960 0.082156 0.115146 -0.027940 0.084703 -0.027537 0.233228 0.136993 -0.139557 -0.010309 0.017796 -0.187321 -0.217508 0.203587 0.007277 -0.214581 -0.060079 -0.163695 0.167573 -0.035369 -0.101325 -0.048934 0.082113 -0.068350 0.049140 -0.003782 -0.068002 -0.115777 0.134791 -0.002698 -0.004886 0.061790 -0.173399 -0.018840 0.151388 0.105515 0.002655 0.148029 -0.046565 0.103236 0.389555 -0.174216 0.277165 -0.104087 0.066257 -0.144740 0.065705 -0.079351 -0.004129 0.135197 0.068915 0.009501 0.034974 0.070204 0.140722 0.022125 0.098870 0.032410 -0.011279 -0.161900 -0.127215 -0.291068 -0.137486 0.147387 0.124705 0.198227 0.142100 0.020161 0.011396 -0.112192 0.133957 0.093098 0.134925 -0.134920 -0.131284 -0.079184 0.078180 -0.277776 0.145960 0.013946 0.118601 -0.037833 0.066372 0.137458 0.244250 0.144236 0.146458 -0.117008 -0.040921 -0.083405 0.073044 0.183946 0.087092 -0.047753 -0.030537 0.097644 -0.114190 0.176763 0.064523 -0.104461 0.071992 -0.080869 -0.064781 -0.189186 -0.063788 0.043318 0.050196 0.363386 0.004124 -0.092747 -0.143356 -0.081896 -0.081209 -0.062079 0.222983 0.005610 0.005480 -0.051645 -0.268860 -0.199938 -0.037697 0.033406 0.075721 -0.097822 -0.223856 -0.132733 -0.012019 0.056147 -0.015331 0.000725 0.029315 0.284732 -0.066687 -0.235537 -0.102032 -0.057275 -0.066484 -0.121402 -0.009128 -0.081450 -0.204071 0.120960 -0.070608
`` 0.009219 -0.035582 -0.108126 -0.227409 -0.167592 0.114138 -0.071633 0.188351 0.269007 0.005397 -0.059350 -0.126297 0.114636 0.134583 -0.030019 -0.060851 -0.051467 0.028475 -0.116474 -0.017953 0.269966 -0.040239 0.007957 -0.101318 -0.071360 0.067343 -0.147056 0.022727 -0.282811 0.051569 0.251256 0.001642 0.065930 0.133241 0.226428 0.025931 0.264907 0.083524 -0.112443 -0.042950 0.080986 -0.101979 0.079900 -0.114096 0.181007 0.010670 -0.107493 -0.064243 -0.160408 0.155725 0.169319 0.085896 -0.071581 0.015266 0.018607 0.076018 -0.133241 -0.127476 -0.155168 0.020217 0.029038 -0.208650 -0.104315 0.086933 -0.034785 -0.033801 0.047048 0.021065 -0.011133 0.068447 -0.142643 -0.114665 -0.153339 0.187380 0.192736 -0.136755 0.251891 0.141121 0.068368 0.061442 -0.114434 0.061168 -0.118319 0.074807 0.064787 0.175462 0.102864 -0.051608 0.111722 -0.221021 -0.136863 -0.115577 0.015142 -0.006211 0.173962 -0.084845 -0.190930 -0.018831 -0.057960 -0.108264 -0.114448 0.232224 -0.029236 0.141570 0.049945 -0.208872 0.131069 -0.003805 -0.211004 -0.062866 0.133509 0.089252 -0.018737 -0.038733 0.067951 -0.030090 0.063544 -0.152961 0.029177 -0.072733 -0.093400 0.057116 0.146217 -0.155987 -0.024573 0.054318 0.153633 0.034132 0.207688 0.028092 -0.071687 0.123703 0.281061 0.106828 0.405611 0.289893 -0.112686 0.008101 0.013145 0.148194 -0.050116 0.156124 -0.209833 0.018242 0.133399 -0.013957 0.001751 -0.012694 0.098201 -0.037979 -0.138019 -0.230240 -0.105837 0.151725 0.320806 -0.082110 -0.044354 -0.005364 0.080877 0.102261 -0.030917 0.107077 -0.026588 0.223819 0.133909 -0.137423 -0.016188 0.006281 -0.201322 -0.214487 0.197484 0.008053 -0.203201 -0.078822 -0.159806 0.154353 -0.031029 -0.069734 -0.025686 0.075187 -0.090112 0.058540 -0.005927 -0.064132 -0.108037 0.123984 -0.002456 -0.014884 0.080762 -0.182530 -0.020998 0.164379 0.096808 -0.000225 0.138522 -0.038960 0.095189 0.419930 -0.192618 0.272206 -0.108092 0.063144 -0.147168 0.061427 -0.097970 -0.015671 0.149072 0.072191 0.018603 0.079842 0.062907 0.160582 0.008596 0.098480 0.027141 0.000128 -0.155269 -0.129721 -0.304052 -0.132095 0.141767 0.124597 0.225084 0.142360 0.008086 0.013549 -0.100156 0.145144 0.105335 0.136455 -0.156534 -0.117682 -0.058211 0.065365 -0.252014 0.120419 0.023248 0.098984 -0.028205 0.078527 0.137712 0.258866 0.151118 0.133200 -0.125502 -0.040873 -0.088850 0.060162 0.165574 0.091658 -0.042507 -0.048951 0.110689 -0.112389 0.173428 0.074617 -0.140246 0.038668 -0.075962 -0.050893 -0.178776 -0.076855 0.036864 0.065970 0.385533 0.017061 -0.119655 -0.166567 -0.053217 -0.103720 -0.054164 0.231998 -0.023805 -0.001625 -0.059009 -0.289412 -0.224336 -0.036082 0.052350 0.084269 -0.102798 -0.201363 -0.131991 -0.016628 0.041979 0.003576 0.000546 0.037709 0.280638 -0.043939 -0.219906 -0.102934 -0.060082 -0.048140 -0.131187 -0.013582 -0.052046 -0.202072 0.124481 -0.090062
is -0.115997 0.114217 -0.001048 -0.164296 -0.071148 -0.046961 -0.094500 0.015453 0.231676 0.100639 -0.267277 -0.021136 -0.021027 0.051818 -0.088404 -0.142144 -0.295391 0.031389 -0.191006 -0.104942 0.311043 0.128417 -0.283972 0.130742 0.172444 0.117800 -0.068712 -0.053727 -0.260957 0.030738 0.064557 0.055737 -0.027846 0.056470 0.050053 -0.013100 0.213168 -0.060492 -0.054981 -0.027172 0.207210 0.113742 -0.076415 -0.072652 0.110089 -0.141359 0.019844 -0.002861 -0.278603 0.063734 -0.094044 -0.166672 0.032523 0.180720 -0.012812 -0.162783 -0.035559 -0.173758 -0.145560 -0.019012 -0.047867 -0.184590 -0.037617 -0.041600 -0.034963 -0.173419 0.253777 0.003019 0.087127 0.056135 -0.122850 -0.129728 -0.059656 0.154675 0.142613 -0.143420 0.070291 -0.044975 -0.118322 -0.112252 -0.059356 0.220336 -0.133790 0.012671 0.068260 0.130683 0.173929 0.152305 0.099527 -0.231309 0.083363 -0.005267 -0.015589 -0.019886 -0.101239 -0.100149 0.012149 -0.173518 -0.010897 -0.153141 0.048906 -0.060336 -0.018513 0.050365 -0.040327 -0.065786 0.192400 0.124938 -0.135256 0.128604 0.168247 0.037049 0.033778 -0.068650 0.094186 0.036971 0.150945 -0.034104 0.008559 0.072132 -0.066570 0.118838 -0.044821 -0.035556 -0.201899 0.042640 -0.097914 -0.029513 0.184775 -0.043000 0.278601 0.224472 0.142818 -0.051346 0.196816 0.102681 -0.182792 0.160541 -0.004850 0.085959 0.058863 -0.025409 -0.071066 0.097106 -0.055409 0.428929 -0.190598 0.056208 0.203456 0.104754 -0.191625 -0.395581 -0.125413 -0.012294 0.261171 -0.081550 -0.056397 0.165673 0.190795 0.270064 -0.142434 -0.121620 0.152038 0.244696 -0.052455 0.000379 0.040038 0.032245 0.049021 0.054234 0.302141 0.026205 -0.096575 -0.348258 -0.097357 0.124055 -0.011865 -0.027410 -0.101375 -0.124638 0.169055 0.289858 -0.032564 0.038816 -0.133554 0.271221 -0.057338 0.084284 -0.064569 -0.211554 0.094740 0.030640 -0.134117 -0.103215 -0.081677 -0.113373 -0.060621 0.077203 -0.218745 0.075006 0.161270 -0.188006 -0.018735 -0.113796 -0.074651 0.008730 0.100174 0.259879 -0.139064 0.221408 -0.082727 0.120199 0.007164 -0.186276 -0.190981 -0.050098 -0.246318 0.190482 -0.017203 -0.143218 0.186244 -0.074550 0.062712 0.013968 0.063368 -0.198481 0.102958 0.052463 0.042006 0.061162 0.054450 -0.288800 -0.145020 0.115670 -0.083711 -0.069639 -0.155581 0.035306 0.055626 0.133726 0.049928 0.132095 -0.096273 0.112418 -0.167821 -0.269160 -0.036613 0.120911 0.164617 0.146232 0.006467 0.038529 0.111318 -0.207633 0.174628 0.193090 -0.087470 0.343318 0.034560 -0.053990 0.043804 0.050347 0.084590 0.054331 0.169302 0.063537 0.174335 -0.104548 -0.020600 -0.131766 -0.046679 0.063010 0.020843 -0.242933 -0.138376 -0.189305 -0.058459 -0.239283 -0.072156 0.087087 0.093054 -0.093914 0.163401 -0.175188 0.032274 -0.215271 -0.144241 0.049212 0.100496 0.010035 0.073338 -0.026567 -0.042635 -0.020505 -0.185756 -0.070683 -0.120985 -0.000034 0.200698 0.145244
for -0.138360 0.260063 0.059776 -0.210635 -0.097390 0.128382 -0.076393 0.080947 -0.025344 -0.079603 -0.000283 -0.129710 0.058405 -0.050266 -0.036657 -0.006411 -0.185784 -0.018355 -0.109204 -0.073635 0.085736 0.205460 -0.224035 0.007653 -0.079088 0.021979 -0.092525 -0.173607 -0.138391 -0.046257 -0.078106 0.060838 0.003783 -0.061282 -0.062360 0.089776 0.167673 -0.032624 0.006823 0.029085 0.073527 0.086981 -0.076453 -0.210953 0.064755 -0.101007 0.189041 0.040959 -0.111288 0.055104 -0.055435 -0.196412 0.136635 0.102254 0.044052 -0.100132 -0.017101 -0.201942 -0.097119 -0.000460 -0.084267 -0.100283 -0.103392 0.108753 -0.095711 0.096306 0.206076 -0.138674 -0.069524 0.156855 0.147776 -0.169287 -0.237707 0.075735 -0.055581 -0.034071 0.063714 0.075842 -0.075003 -0.081018 -0.194983 0.193069 0.047412 -0.006954 -0.039487 0.108316 0.152960 -0.021909 0.147038 -0.099784 -0.169178 -0.118493 -0.096553 0.053709 -0.047319 -0.010670 -0.109820 0.019918 0.017102 -0.071945 0.096728 -0.036011 -0.076063 0.236111 -0.094203 -0.253838 0.007822 0.135785 -0.197353 -0.024447 0.047321 -0.015043 -0.004363 -0.031981 -0.084480 0.064257 -0.018162 -0.098579 0.011421 0.092571 0.100550 -0.024913 0.153488 -0.257888 -0.145904 -0.041781 0.098125 -0.002587 0.127233 -0.072386 0.036941 0.117231 0.094181 0.063181 0.137299 0.128057 -0.123597 0.038818 -0.038981 -0.115860 0.018268 -0.004484 0.065612 0.113959 0.002498 0.190559 0.024581 0.085369 0.164605 -0.007535 -0.143565 -0.190036 -0.086949 0.011918 0.034846 -0.027161 -0.112716 0.002912 0.128217 -0.013990 -0.044562 0.015908 0.066470 0.104789 0.110277 0.062577 -0.092103 -0.127044 0.118171 -0.113517 0.235101 -0.055582 -0.099968 -0.110369 -0.008692 0.093952 -0.019933 0.080616 0.063925 -0.055303 -0.018967 0.136323 -0.012079 0.047462 -0.100197 0.147347 -0.060673 0.124656 -0.120814 -0.105327 -0.011107 -0.066778 -0.022799 0.080209 -0.027580 -0.101502 -0.102797 0.200293 0.081238 0.117687 0.060352 0.047774 0.039135 -0.053344 -0.057170 -0.103058 0.075699 -0.150409 -0.087185 0.116668 -0.139831 0.006582 -0.137320 -0.023014 -0.159574 0.028259 -0.182840 0.023110 -0.147470 -0.005517 0.121813 0.091980 -0.004119 -0.010460 -0.010637 0.075969 -0.075451 -0.090318 0.119429 0.024140 -0.122208 -0.084740 -0.217200 0.041303 0.078638 0.035796 -0.007335 0.004583 0.066579 0.124251 0.093929 0.067490 -0.088440 0.078810 0.006323 -0.239523 0.111383 0.073206 0.050474 0.057540 -0.080151 -0.005280 -0.032014 -0.035201 0.016551 0.161123 -0.137000 0.137125 -0.005449 0.022563 -0.104712 -0.066210 0.003116 0.089900 0.366183 0.048081 0.075477 -0.179529 -0.121719 0.054177 0.120538 0.133634 -0.079273 -0.152411 -0.183827 -0.006132 -0.079219 -0.044646 -0.094724 0.142283 0.029556 -0.097910 -0.088028 -0.147138 0.085579 0.034202 0.026627 -0.132454 -0.034798 -0.010165 -0.152416 -0.022296 -0.010520 -0.026829 -0.140627 0.051093 -0.197273 0.025980 -0.069634 -0.071501
-rrb- -0.170522 0.194037 -0.096888 -0.088635 -0.199795 -0.034318 -0.036142 0.135074 0.195957 -0.031882 -0.226782 0.047282 0.141155 0.129421 -0.132762 -0.029515 -0.218218 -0.002004 -0.186874 -0.145880 0.192093 0.091727 -0.229382 0.104760 -0.049129 -0.097931 -0.134587 0.020644 -0.267626 0.035529 0.041705 0.003231 0.019477 0.104597 0.076708 -0.042877 0.191062 0.001873 0.049286 -0.033460 0.226266 0.186522 -0.009053 -0.143860 0.173696 -0.097280 -0.036473 0.058481 -0.099547 0.048517 -0.130896 -0.078023 -0.062308 0.149478 -0.013526 -0.026167 -0.037772 -0.154108 -0.248863 0.143268 -0.023465 -0.097853 0.061309 0.085504 0.020778 -0.003912 0.092954 -0.005960 -0.014493 0.131520 0.027185 -0.227151 -0.200076 0.178143 0.132219 -0.045616 0.129641 0.110079 -0.083494 -0.034458 -0.144913 0.243572 -0.214644 -0.065337 0.039503 0.182492 0.196484 0.064508 -0.008098 -0.259966 -0.082172 0.001061 -0.078239 -0.183322 -0.032902 0.105084 -0.085008 -0.073117 -0.012606 -0.073332 -0.078599 0.180808 -0.026379 0.131427 -0.099162 -0.177770 0.215736 0.147828 0.058236 0.064702 0.120176 0.121506 0.143070 0.112905 0.177881 0.203320 -0.036283 0.025314 0.076090 0.041072 0.173407 0.095963 0.058841 -0.226910 -0.095615 -0.136280 -0.077153 -0.136418 0.169994 -0.070480 -0.014692 0.061198 0.105002 0.059083 0.267447 0.084670 -0.088011 0.018118 0.054178 0.080103 -0.066982 0.074187 -0.095590 0.022719 0.135269 0.235066 0.048170 0.198626 0.046333 -0.067217 -0.289297 -0.215488 -0.116577 0.136570 0.167289 -0.041576 -0.213080 -0.131553 0.271930 0.155511 0.169013 0.002304 0.071895 0.206217 0.119774 0.048584 0.057240 -0.056034 -0.015582 -0.061768 0.229821 -0.069101 -0.223238 -0.071211 0.077491 0.087651 -0.072795 -0.114124 -0.087240 0.012280 0.183279 0.139399 0.035068 -0.045060 -0.136935 0.286305 -0.130452 0.100967 0.096075 -0.186383 -0.011496 0.028750 -0.046288 0.092667 -0.205725 -0.051206 0.052020 0.152284 -0.117213 0.191544 0.035318 -0.236546 -0.058598 -0.137579 0.007614 0.008259 0.140412 0.069891 -0.090851 0.053110 0.138138 0.124234 0.033405 0.045268 -0.059396 0.013203 -0.158210 0.111768 -0.122884 -0.030826 0.197633 -0.084443 0.096841 0.083674 0.110218 -0.187981 0.061455 0.154014 0.072317 -0.056113 -0.071745 -0.203886 -0.083434 -0.019324 -0.040377 -0.093111 -0.212457 -0.088717 0.027210 0.099602 0.136572 0.035487 -0.008310 0.177900 0.002224 -0.191681 0.003651 0.105637 0.142880 0.166310 -0.135351 0.058134 0.015678 -0.195615 -0.024073 0.083349 0.015513 0.295930 -0.121867 0.164859 -0.106293 -0.065646 0.005123 0.041140 0.147966 0.098219 0.095685 -0.179984 -0.137737 -0.128090 -0.035150 0.172849 0.022055 -0.130296 -0.084796 -0.036789 -0.355434 0.001316 -0.129916 0.003317 -0.047142 -0.161082 -0.061421 -0.226834 0.048431 -0.142959 -0.114468 0.044914 0.353324 -0.140051 -0.078330 -0.030546 -0.129598 -0.208841 0.001755 -0.116368 -0.109752 -0.023855 0.064648 0.031202
-lrb- -0.155270 0.170857 -0.121929 -0.084174 -0.186117 -0.030905 -0.081419 0.176329 0.203888 0.016281 -0.199505 0.082368 0.135693 0.139259 -0.161007 -0.015973 -0.185871 -0.023691 -0.164173 -0.126773 0.182287 0.056079 -0.196355 0.117204 -0.070800 -0.113256 -0.137840 0.020633 -0.253726 0.044882 0.086350 -0.019035 0.049062 0.132807 0.099879 -0.055021 0.173896 -0.001424 0.028354 -0.059939 0.252455 0.164552 -0.000751 -0.116423 0.211865 -0.109311 -0.018993 0.055810 -0.096437 0.049705 -0.110753 -0.064710 -0.061354 0.157254 0.009726 -0.015967 -0.048069 -0.143394 -0.233295 0.193617 0.011033 -0.110670 0.039551 0.105084 0.019048 0.005612 0.097203 -0.009817 0.003629 0.169178 0.014570 -0.215996 -0.208604 0.134545 0.148737 -0.034729 0.113441 0.109483 -0.075915 -0.016969 -0.163500 0.231925 -0.173771 -0.052292 0.051438 0.188906 0.167597 0.067113 -0.028531 -0.258373 -0.097427 -0.009214 -0.090654 -0.214314 -0.030247 0.129510 -0.094333 -0.085757 -0.008509 -0.078689 -0.110670 0.201032 -0.017404 0.119418 -0.076831 -0.166886 0.213464 0.121455 0.072846 0.039477 0.155985 0.111846 0.175322 0.119124 0.180539 0.193463 -0.026221 0.048596 0.107255 0.041771 0.186031 0.090953 0.061935 -0.226421 -0.139171 -0.167560 -0.056041 -0.158064 0.152924 -0.078027 -0.032052 0.046204 0.109937 0.032173 0.323642 0.101876 -0.091109 0.042183 0.083301 0.099809 -0.087955 0.103292 -0.114823 0.035498 0.140928 0.237302 0.053880 0.207641 0.066172 -0.087701 -0.266372 -0.221704 -0.102047 0.168812 0.122703 -0.030315 -0.200351 -0.152241 0.267918 0.138134 0.200651 -0.011934 0.043899 0.210598 0.140921 -0.012929 0.071823 -0.062800 0.009898 -0.050115 0.244108 -0.057106 -0.210240 -0.033280 0.072116 0.117299 -0.083849 -0.106718 -0.100720 0.017453 0.168349 0.119899 0.064781 -0.065995 -0.135716 0.275427 -0.145824 0.101725 0.101659 -0.179116 -0.017191 0.056104 -0.026131 0.107447 -0.177705 -0.055250 0.049243 0.180073 -0.133981 0.232037 0.038921 -0.222866 -0.059531 -0.140747 0.025705 -0.004470 0.113903 0.086811 -0.098041 0.070461 0.145192 0.099975 0.050493 0.038967 -0.064151 0.026462 -0.122908 0.143263 -0.097282 -0.053973 0.184404 -0.093260 0.124986 0.063787 0.165868 -0.187679 0.059609 0.147764 0.078012 -0.075550 -0.064588 -0.184700 -0.061824 -0.051173 -0.055002 -0.092997 -0.204482 -0.086494 0.036050 0.083870 0.124817 0.050626 0.016306 0.214532 -0.027462 -0.202668 -0.016363 0.085973 0.118577 0.153112 -0.141797 0.041699 0.008853 -0.183469 -0.017418 0.084374 0.042864 0.340964 -0.162836 0.209125 -0.102079 -0.054263 0.023345 0.047034 0.152000 0.077352 0.087443 -0.184816 -0.137497 -0.109757 -0.041618 0.156133 -0.006209 -0.111167 -0.114821 -0.025351 -0.365954 -0.013689 -0.126414 0.007533 -0.062269 -0.176047 -0.072532 -0.203554 0.014609 -0.159184 -0.110343 0.083928 0.421496 -0.134015 -0.060295 -0.045535 -0.114464 -0.228851 0.031063 -0.099844 -0.100847 -0.087874 0.066146 -0.028147
as -0.068125 0.130540 -0.001712 -0.163372 -0.111364 0.048057 -0.041929 0.149649 0.055348 -0.170557 -0.023052 -0.070388 0.100191 0.024344 -0.040146 -0.009999 -0.295774 -0.131961 -0.150313 -0.213617 0.255234 0.118278 -0.049520 0.064509 -0.026596 0.053051 -0.048915 -0.054769 -0.289625 -0.018180 0.035446 0.003261 -0.018205 0.040883 0.108692 0.057147 0.242148 -0.059968 0.041298 -0.006616 0.228611 0.052789 0.040559 -0.078108 0.079760 -0.020651 0.114445 -0.034529 -0.139504 0.075236 -0.050080 -0.183146 0.053422 0.042274 -0.048423 -0.089721 -0.050382 -0.210525 -0.305400 0.031536 -0.101588 -0.151411 -0.002431 0.122956 -0.046492 0.049583 0.057477 -0.007246 0.000440 0.150495 0.055095 -0.175301 -0.164603 -0.034114 0.109133 -0.050490 0.131236 0.091234 0.006686 -0.063166 -0.160616 0.192706 -0.023511 0.001471 0.000820 0.173799 0.227264 0.069097 0.052744 -0.049552 -0.104374 -0.131216 -0.087188 0.058359 -0.063050 -0.010894 -0.077300 0.015842 -0.011217 -0.030888 0.141709 0.054539 -0.068803 0.153057 -0.084494 -0.108837 0.103053 0.148672 -0.127587 0.122756 0.005399 0.083492 -0.034676 0.016798 -0.102483 0.126898 -0.086037 -0.115041 0.068613 0.129182 0.030261 0.095359 0.033783 -0.130300 -0.182318 -0.059359 0.058595 -0.011366 0.165214 -0.056871 0.068162 0.186211 0.116558 -0.033232 -0.006659 0.202995 -0.018618 0.160864 0.007935 -0.052366 0.057756 0.012263 -0.061598 0.002480 0.073590 0.213167 0.003871 0.031691 0.123608 0.028024 -0.104631 -0.254435 -0.188523 -0.007281 0.138260 -0.121671 -0.078380 -0.001703 0.175150 0.063295 -0.078921 -0.034504 0.118781 0.081407 0.014247 0.025588 -0.081647 -0.146520 0.139233 -0.079799 0.162157 -0.020307 -0.130444 -0.161887 0.021595 0.024042 -0.076319 0.010271 0.100145 0.003494 -0.023652 0.125117 -0.007550 0.098348 -0.119602 0.009922 -0.103394 -0.041144 -0.160481 -0.260484 0.110154 0.053773 0.077978 0.007021 -0.001930 -0.098385 0.063871 0.197276 -0.051621 0.071743 0.037553 -0.086094 0.001895 0.054915 -0.010044 -0.070755 0.100567 -0.026586 -0.116101 0.101304 -0.064431 0.081416 -0.023026 0.022907 -0.145309 0.063923 -0.190702 0.039937 -0.150599 0.048448 0.064620 0.066947 0.203396 -0.019256 -0.054280 -0.083769 0.017786 -0.020978 0.058360 0.038160 -0.195056 -0.208671 -0.190477 0.127964 0.019666 0.016958 -0.094162 -0.005989 0.124720 0.178686 0.067697 0.093869 -0.080772 0.181985 -0.011893 -0.137641 -0.060585 0.059428 -0.054509 0.030146 -0.153202 -0.110581 0.072133 -0.000311 0.004990 0.211306 -0.086420 0.170636 0.011370 -0.007246 -0.128972 -0.087144 0.057978 0.025445 0.377612 0.088328 -0.020931 -0.034701 -0.058414 -0.110932 0.002158 0.038597 0.012364 -0.068163 -0.033582 -0.080961 -0.030686 0.010533 -0.068234 0.093008 0.092947 -0.101267 -0.106171 -0.198159 0.024149 -0.002621 0.003601 -0.038825 -0.006942 0.112516 -0.104179 -0.012556 -0.006347 -0.084868 -0.054053 0.033120 -0.133437 0.012242 0.029835 -0.024478
on 0.137989 0.268023 0.062716 -0.436185 -0.097794 -0.039741 -0.105264 -0.079291 -0.052297 -0.101724 -0.129624 0.035504 0.033493 0.181696 0.017399 -0.007764 -0.210075 0.043817 -0.140499 -0.120330 0.068945 0.188619 -0.187031 0.106657 -0.096284 0.216414 -0.126133 -0.026489 -0.196228 -0.149569 0.004552 -0.057145 -0.107548 -0.088509 -0.019060 -0.022303 0.184114 0.014928 -0.025205 0.014865 0.069935 0.018339 0.053764 0.011109 0.103861 -0.113665 0.095006 0.103705 -0.162677 0.278314 -0.064624 -0.101738 0.204032 -0.029703 0.113872 -0.091041 -0.081317 -0.233296 -0.229913 0.106235 -0.138355 -0.218882 -0.241182 0.046044 0.056563 -0.034092 0.130129 -0.106783 0.047797 0.163883 -0.091444 -0.101303 -0.032359 0.052738 0.009603 -0.050630 0.127733 0.061346 -0.001373 0.199644 -0.027081 0.107785 0.058644 0.195702 0.012267 0.168775 0.293907 0.036627 0.199483 -0.036973 -0.078965 -0.058547 -0.094070 0.071828 -0.037684 0.118799 -0.092109 -0.001526 0.038979 -0.005872 -0.023346 -0.156031 -0.119122 0.193271 -0.188149 -0.053967 0.119730 0.025667 -0.086799 0.070221 -0.055960 0.067150 -0.107804 0.029231 0.060044 -0.032159 0.119254 -0.165844 -0.080225 -0.111639 0.054332 0.002440 0.091287 -0.070452 -0.082907 -0.103390 -0.018683 0.053523 0.149308 -0.013597 -0.068592 0.167440 0.104082 0.110337 0.268469 0.284372 -0.198993 -0.045527 0.221495 -0.044299 0.099462 0.017402 -0.104262 -0.057246 -0.017790 -0.111506 0.002223 0.037315 0.156533 -0.064375 -0.032679 -0.248576 -0.061008 -0.044882 0.009130 -0.065354 -0.165226 0.040969 -0.030314 0.066067 0.058136 0.063838 0.071061 0.079649 -0.014581 0.045544 0.033500 -0.040710 0.012474 -0.073748 0.269885 0.012239 -0.285152 -0.085481 -0.095371 0.174947 0.025247 0.059108 -0.138075 0.072507 0.016586 0.176220 -0.063127 -0.031588 -0.252281 0.203985 0.008750 0.117603 -0.106214 -0.105356 0.062651 -0.058013 -0.096566 0.022333 -0.050361 -0.050557 -0.037614 0.233132 -0.011148 0.160570 0.077271 -0.017938 -0.172852 -0.146325 -0.080088 -0.014932 -0.005707 -0.013307 -0.062070 0.139407 -0.150693 -0.044675 -0.169422 -0.023137 -0.130856 0.014773 -0.089374 0.071826 -0.017015 0.020308 0.305558 0.010575 0.108425 -0.175534 0.013237 0.106247 -0.049098 0.111100 0.031747 0.056322 -0.144077 -0.218685 -0.076735 -0.098172 -0.130190 0.155747 -0.152480 -0.038440 0.032988 0.120550 0.042639 0.193356 0.070016 0.259060 -0.032757 -0.074072 -0.089560 0.170549 0.026743 0.208056 0.087984 -0.057159 0.097881 -0.074774 0.092174 0.032526 -0.106022 0.232743 -0.179215 -0.019487 0.192640 -0.019220 0.112172 -0.046157 0.237020 0.088881 -0.033173 -0.123569 -0.103126 -0.024608 0.017087 0.117860 -0.160430 0.027051 -0.158733 -0.227440 -0.182782 0.066840 -0.014544 0.183723 0.111858 -0.302643 -0.051921 -0.101551 0.107613 0.018830 0.093670 0.068111 -0.102722 -0.003662 -0.022781 -0.167160 0.068385 -0.094964 -0.124123 -0.041138 -0.008929 -0.026274 0.011434 -0.068879
with 0.129410 0.218527 0.013741 -0.128014 -0.044028 -0.063084 -0.049699 0.176882 0.092770 -0.106165 -0.120209 -0.042163 -0.155698 0.076455 -0.064642 -0.174329 -0.134848 0.103177 0.022554 0.046999 0.181717 0.181581 -0.085836 0.068180 -0.047367 -0.014395 -0.056437 -0.087938 -0.156289 -0.015903 -0.037980 0.174539 -0.016966 -0.054818 0.123778 -0.037400 0.128976 0.033602 0.058077 0.023106 0.115897 0.079173 0.178233 -0.003232 0.180785 -0.176888 0.168752 0.000209 -0.083872 0.060615 -0.020178 -0.150483 0.055853 0.007536 0.037929 -0.102185 -0.057448 -0.304971 -0.249085 0.011357 -0.033783 -0.075020 -0.185222 0.124438 -0.069894 0.110605 -0.024366 -0.019628 0.074505 0.105397 -0.041108 -0.074630 -0.083814 -0.064625 0.034900 -0.087133 0.025460 -0.058962 0.042960 -0.020763 -0.104944 0.243782 -0.022299 0.016168 0.095490 -0.037289 0.082792 0.064471 0.195554 0.040206 -0.181334 -0.278780 -0.290661 -0.019977 -0.072965 -0.044273 -0.111557 -0.031188 -0.079346 -0.065114 0.156161 -0.064242 0.086336 0.232727 -0.082488 -0.156669 0.083298 0.109812 -0.248751 -0.064489 0.014695 -0.020877 -0.189936 0.069844 -0.059245 0.047430 0.028513 -0.096413 0.096249 0.064239 0.079555 -0.052635 0.032691 -0.149257 -0.167709 -0.000373 -0.071260 -0.030413 0.053847 -0.108373 0.209989 0.277571 -0.071881 0.034633 0.111492 0.155887 -0.276902 0.163168 0.018219 0.045257 -0.001250 -0.027927 -0.015228 -0.028117 0.116202 0.051727 0.077084 0.002584 0.082119 -0.103724 -0.089620 -0.145932 -0.108170 0.008452 -0.053309 -0.041748 -0.084230 -0.007169 0.133174 0.060252 0.021748 0.078328 0.145051 0.145015 -0.024399 -0.039460 -0.118578 0.020235 0.115859 0.077653 0.217038 -0.021368 -0.140492 -0.156050 0.031774 0.115893 -0.153897 -0.082368 0.033147 -0.010206 0.168946 0.074914 0.036084 -0.037246 -0.086843 0.157849 -0.000480 0.124043 -0.223855 -0.068825 -0.158950 0.037201 -0.172133 -0.067243 -0.038399 -0.081431 -0.022210 0.050059 0.010178 0.171739 0.061117 -0.139253 -0.136510 -0.138741 -0.040749 0.035076 0.076767 0.084708 -0.177279 0.165045 -0.062518 0.040791 -0.110237 -0.069972 -0.069118 0.040522 -0.004276 -0.013893 -0.008425 -0.066093 0.269577 0.046085 0.201343 -0.085458 0.013509 0.123657 -0.122416 0.199366 0.194583 -0.065351 -0.054704 -0.160982 -0.100345 0.014527 -0.010612 0.072217 -0.025142 0.111177 -0.031650 0.141375 0.071527 0.002435 -0.016256 0.198518 -0.030122 -0.046041 -0.001075 0.123557 0.096739 0.177916 -0.024329 0.060754 0.011420 -0.024230 0.053125 0.143756 -0.012249 0.162915 -0.169213 0.166915 0.078216 -0.090548 0.030453 0.026616 0.302740 0.038637 0.063398 -0.055197 0.027315 -0.007551 -0.068303 0.138692 -0.092477 -0.079158 -0.291014 -0.022695 -0.123032 0.037654 -0.171724 0.079000 0.056857 -0.170750 -0.043621 -0.100610 -0.026146 -0.111884 0.004089 -0.054234 0.022710 0.010094 0.017396 -0.053065 -0.046186 -0.081878 -0.067300 -0.062402 -0.094061 -0.000996 0.081796 -0.116367
by 0.092159 0.022055 0.109545 -0.188991 -0.117918 -0.062879 -0.162348 0.074841 0.006299 -0.034396 -0.200092 -0.046374 -0.138411 0.202699 -0.135720 0.030790 -0.201736 0.047814 -0.071252 0.121732 0.334653 0.183683 -0.074728 0.071247 -0.028636 0.006542 -0.084852 -0.026116 -0.157089 -0.034701 0.099136 0.175903 0.065035 0.097937 0.160376 0.071907 0.164549 0.047952 0.099395 -0.108838 0.212331 0.022794 -0.095369 -0.025352 0.172615 -0.207281 -0.101285 -0.096532 -0.051535 0.027724 -0.038082 0.021967 0.057165 0.125960 0.106402 -0.093950 0.009958 -0.184378 -0.135488 0.093311 -0.113908 -0.144665 -0.155572 -0.050393 -0.076687 0.106829 0.038335 -0.053903 -0.034788 0.098143 -0.046988 -0.051455 -0.113108 -0.056564 0.130391 -0.241555 0.064203 -0.004585 -0.142258 0.071211 -0.043332 0.262106 0.083646 0.018801 0.122660 -0.107958 0.372898 0.018339 0.089892 -0.097231 -0.152770 0.019279 -0.169986 0.093449 0.088248 -0.103468 0.079447 -0.072582 -0.091540 -0.029355 0.185963 -0.036121 0.028735 0.150139 0.076045 -0.150077 0.073652 0.020982 -0.301906 0.039443 0.243664 0.028975 0.012661 -0.014047 -0.019153 0.006808 0.056890 -0.101028 0.010876 -0.112174 0.123910 0.008352 0.048777 0.038148 -0.061967 0.069798 -0.051434 -0.015091 0.244039 -0.096700 0.066729 0.208062 0.120455 0.036219 0.054294 0.120850 -0.149636 -0.029332 0.117086 -0.015243 0.002522 0.122022 -0.015593 0.050991 0.035830 0.172330 -0.068504 0.015369 0.229784 -0.026558 -0.045702 -0.310461 -0.068533 -0.081719 0.118910 0.041981 -0.101716 -0.135836 0.074770 -0.036850 -0.060531 0.039364 0.032882 0.101402 0.039966 -0.163809 0.064692 0.020916 0.121743 -0.020124 0.291306 -0.035412 -0.211554 -0.230022 -0.166801 0.143411 0.057212 0.074543 -0.126590 -0.065969 -0.012847 0.108217 0.059638 0.159980 -0.118114 0.034889 -0.242333 0.091247 0.002370 -0.199415 0.013612 0.094541 -0.193991 0.115574 0.008293 -0.098843 -0.248593 0.208770 -0.120878 0.286376 -0.023749 -0.089254 -0.136421 -0.087412 -0.067999 0.017559 0.107944 0.219375 -0.049910 0.167772 -0.165951 0.020781 -0.002551 0.072323 -0.101393 -0.097323 -0.083574 0.050147 -0.240590 0.070573 0.142520 0.092551 0.233083 -0.206148 0.113269 -0.045375 -0.023534 -0.055140 0.158341 -0.086982 -0.168688 -0.020878 0.002012 -0.002660 0.180668 -0.021349 -0.183118 -0.050504 0.037600 0.092408 -0.019511 -0.033428 0.143936 0.272833 -0.299231 -0.079088 -0.029813 0.125318 0.070944 0.266493 0.080856 -0.050204 0.011068 -0.147371 -0.084023 0.214848 -0.083950 0.149174 -0.207743 0.077025 0.067592 -0.146928 -0.022271 0.062356 0.089475 0.189654 0.091474 0.041758 0.022952 -0.028219 -0.055330 0.119036 -0.078147 -0.032197 -0.178886 -0.040940 -0.161268 0.052772 -0.082256 0.235993 0.021523 -0.222917 -0.040887 -0.160536 0.073937 -0.148551 -0.098474 -0.030502 0.132412 0.015460 0.028175 -0.146274 -0.006416 0.046124 -0.061919 0.065013 -0.105777 -0.058843 0.159895 -0.101952
he -0.122650 0.317220 0.004501 -0.190671 -0.162162 -0.035318 -0.193189 0.047227 0.014145 -0.314102 -0.057084 -0.061086 0.105283 0.061136 0.089362 -0.039781 -0.258547 0.056996 -0.121262 -0.036114 -0.032579 0.173857 -0.138188 -0.273707 -0.142950 0.044084 0.019585 0.002005 -0.185533 0.008301 -0.096750 -0.170187 -0.088300 0.106422 -0.032783 -0.122108 0.316944 -0.033822 0.185705 -0.299997 -0.022206 0.098214 0.112881 -0.101921 0.151457 -0.100301 0.216096 -0.015518 -0.113518 0.210928 -0.030078 -0.232138 0.186210 0.062554 -0.066996 -0.083408 -0.021252 -0.230612 -0.196829 -0.049815 -0.269291 -0.176484 0.004823 -0.077049 -0.163358 0.066317 0.198262 0.027754 0.018595 -0.175372 0.284172 -0.219533 -0.271112 0.111602 -0.009948 0.129725 0.079541 -0.083917 -0.094679 -0.063655 -0.364854 0.230160 0.017934 0.216966 -0.029530 0.260086 0.133356 0.075145 0.063089 0.014835 -0.105030 -0.073510 -0.007508 0.087792 -0.131607 -0.128945 -0.052560 -0.086964 -0.070904 0.056724 0.282620 -0.020618 -0.136137 0.208731 -0.055021 -0.092737 0.111474 0.305471 -0.028908 0.088141 -0.067376 0.145030 -0.044803 -0.080558 0.049652 0.329488 -0.108647 -0.047345 -0.170782 -0.075599 0.263934 -0.009110 0.105448 -0.224136 -0.100648 0.002868 0.106242 -0.135507 -0.030887 -0.080672 -0.014730 0.034950 0.000646 0.216575 0.030898 0.119297 -0.041097 -0.140805 0.004140 -0.094569 -0.017472 0.006385 -0.050681 -0.084671 0.091608 0.076781 0.153349 -0.047778 0.057478 -0.048200 -0.088437 -0.028048 -0.080271 -0.203705 0.085629 -0.169422 -0.305739 -0.135438 -0.092752 0.118617 -0.121327 0.018368 0.144318 0.073853 0.042721 0.035986 -0.105639 -0.124065 0.184353 0.011742 0.110685 -0.113944 -0.217668 -0.079222 -0.030375 0.057915 0.042805 -0.070929 0.035177 -0.132904 0.094508 0.118265 -0.105944 0.080953 -0.033538 0.102678 -0.045551 0.000453 0.040954 -0.212759 -0.049535 0.202710 -0.076384 0.082020 -0.191240 -0.115451 0.037623 0.264626 -0.046825 -0.043017 0.070936 -0.086616 -0.077155 -0.120496 -0.079405 -0.003934 0.134073 -0.035308 -0.124517 0.034995 -0.069555 0.187671 -0.116427 0.116060 -0.224293 0.098304 -0.111321 -0.108668 -0.257348 0.031217 0.184428 0.069510 0.072457 -0.189451 -0.086009 0.015647 -0.229589 0.087739 0.064104 0.166997 -0.226464 -0.117376 -0.257866 0.302219 -0.003012 0.080693 -0.181139 -0.099305 -0.024918 0.145334 0.202851 -0.052736 0.006487 -0.151530 0.173269 -0.126105 -0.020832 0.071449 0.129250 0.043120 -0.071790 -0.081121 -0.271584 0.037725 -0.024106 0.203174 -0.164429 -0.033311 0.052152 0.081640 -0.059066 -0.266781 0.040809 -0.049634 0.216645 -0.019827 0.137315 -0.224090 -0.262718 -0.031742 0.094064 0.162434 -0.039768 -0.081597 -0.160599 -0.018030 -0.064330 0.181905 0.010665 0.194649 -0.004303 -0.082882 -0.082170 -0.224823 0.210682 -0.002525 0.055191 -0.177217 -0.214568 0.158455 -0.160660 0.196127 0.024672 -0.023405 -0.094575 0.117039 -0.066274 0.016857 -0.040608 0.056588
's -0.051637 0.048253 -0.038036 -0.218117 0.020294 -0.064685 -0.062334 0.144384 0.031478 -0.112760 0.029016 -0.062004 0.177074 0.075517 0.045559 -0.022103 -0.204660 -0.022402 -0.016565 0.044791 0.122362 0.001981 -0.048139 -0.133243 -0.085312 -0.001881 -0.076165 -0.095929 -0.130150 -0.102776 0.107553 0.035658 0.045951 0.113754 0.062669 0.189730 0.114151 0.131935 0.073245 -0.082980 0.185392 0.085496 0.014556 -0.105255 0.009069 -0.231860 0.162137 -0.014457 -0.137965 0.191540 0.010628 -0.043105 -0.050995 -0.102595 0.007497 0.021323 -0.165080 -0.136854 -0.183037 0.031386 -0.019495 -0.138860 -0.020690 -0.057684 0.031642 0.054443 0.133751 -0.123404 0.000044 -0.051100 0.069015 -0.115800 -0.164903 0.107114 0.087078 -0.024059 0.156604 -0.031467 -0.075855 -0.030886 -0.183030 0.213805 0.037160 0.066471 0.034161 0.171473 0.155803 0.047699 0.070376 0.068617 -0.145782 -0.007072 -0.113503 0.009999 -0.093049 0.000094 -0.043827 0.066408 0.043033 -0.050583 0.172560 -0.072608 -0.049478 0.168803 -0.033009 -0.098310 0.116030 0.129536 -0.188351 0.066756 0.031772 -0.017908 -0.162245 -0.067203 -0.041369 0.054995 0.094612 -0.011421 -0.088923 0.011939 0.010154 0.031602 0.156957 -0.138863 -0.054749 0.100316 0.099036 -0.091710 -0.031315 -0.044145 0.124653 0.054531 -0.021893 0.129061 0.186126 0.287335 -0.102677 0.103881 0.152958 0.024882 -0.061345 0.026683 -0.036005 -0.038025 0.026945 0.139046 -0.058780 0.016893 0.199742 0.009645 -0.003152 -0.319097 -0.089584 -0.085657 0.124224 -0.038472 -0.059848 -0.047246 0.040518 0.087221 -0.119184 0.078553 0.123547 0.031213 -0.089145 0.017630 0.036837 -0.114318 0.075768 -0.001756 0.121596 -0.212272 -0.133710 -0.245848 -0.010332 -0.002585 -0.029293 0.112110 -0.009095 0.077612 0.173726 0.127655 -0.079329 -0.015771 -0.143304 0.126650 -0.034214 0.133538 -0.035242 -0.233402 -0.006334 -0.050025 -0.009434 0.047988 -0.059433 -0.123499 0.007656 0.271556 0.062644 0.286171 0.086144 0.069022 -0.015883 -0.034138 -0.098916 -0.012178 0.151133 -0.078256 -0.063713 0.117995 -0.065407 0.075358 -0.063269 0.057546 -0.127743 0.091214 -0.099099 -0.038040 -0.203074 -0.040834 0.308908 0.145226 0.187044 -0.008894 0.077069 0.032876 -0.078055 0.006253 0.119517 0.090196 -0.003129 -0.133959 -0.116317 0.048412 0.036542 0.091652 -0.160967 0.015785 0.054568 0.146405 0.048150 0.027247 0.047864 0.047916 -0.138788 -0.198090 -0.125573 -0.062905 0.063914 0.030089 -0.157871 0.000575 -0.005315 -0.087664 0.043323 0.051897 0.022176 0.215132 -0.171278 0.050813 -0.068411 -0.021029 0.008543 0.025186 0.160080 -0.010237 0.210846 -0.001272 -0.058802 0.112442 -0.009658 0.173131 -0.119597 -0.069704 -0.176526 -0.225670 -0.055289 0.125230 -0.097431 0.198319 0.002344 -0.140781 -0.060453 -0.075899 0.057019 -0.074146 -0.061476 -0.063915 0.077107 0.239428 -0.017292 0.092381 0.039416 -0.039795 0.029727 0.066194 -0.047938 -0.086067 0.100595 0.009221
that 0.006987 0.095910 0.036716 -0.241629 0.056175 0.020452 0.061090 0.145873 0.122933 -0.104262 0.030307 -0.111601 0.075148 0.042757 0.133722 -0.091758 -0.244960 0.019358 -0.059303 -0.037790 0.193742 0.038010 -0.022702 -0.035368 0.001271 0.187201 -0.118463 -0.053588 -0.107027 0.128130 0.006311 0.113971 -0.047196 0.024798 0.098753 -0.021515 0.297873 0.075236 0.079962 -0.028971 0.073922 -0.086623 0.108042 -0.055817 0.012134 0.001261 0.076824 -0.070903 -0.095789 0.019771 0.064538 -0.023647 0.083797 -0.046291 -0.043521 -0.035220 0.037358 -0.167482 -0.108424 -0.185496 -0.034215 -0.208050 -0.180660 -0.025347 -0.043530 -0.001292 0.051460 -0.016696 0.009987 0.040890 -0.053106 -0.004312 -0.141156 0.069284 0.105615 -0.089198 0.103239 -0.033176 -0.062907 -0.066285 -0.112954 0.175857 -0.043997 0.117311 -0.006630 0.024738 0.152145 0.114855 0.028128 -0.008691 -0.019307 -0.194744 -0.172244 0.042431 -0.034198 0.122795 0.027635 -0.023011 0.008055 -0.068729 0.158984 -0.095373 0.068369 0.119722 0.070557 -0.139128 0.145748 0.085372 -0.219831 -0.098675 0.079366 -0.055307 -0.058866 0.050009 -0.050335 -0.082808 -0.055397 -0.140345 0.049032 0.139826 -0.111534 0.078420 0.213404 0.096279 -0.143892 0.143308 0.094736 -0.019593 0.268227 -0.037056 0.125709 -0.017186 0.109733 0.157492 0.173881 0.269284 -0.011904 -0.058725 0.144114 -0.044862 -0.045217 0.021230 0.037528 0.072681 0.141075 0.121230 -0.006057 -0.039729 0.142581 0.092026 -0.019112 -0.235661 -0.129624 -0.136429 0.144411 -0.074403 -0.073169 0.070973 -0.025617 0.013242 -0.006875 0.007184 0.175328 0.159855 0.030503 -0.037556 0.027570 -0.056051 0.074018 -0.083581 0.165984 -0.011425 -0.128076 -0.203023 -0.064668 0.069133 -0.124624 0.046348 0.039489 0.045949 0.038712 0.122639 -0.020605 -0.011173 -0.067926 0.063331 -0.134724 -0.003402 -0.108324 -0.079472 0.232187 0.028102 -0.064758 0.139331 -0.036308 -0.122703 -0.019065 0.188689 -0.006099 0.101339 0.050316 -0.087155 -0.053120 -0.039486 -0.114180 -0.119086 0.032631 0.083382 -0.010616 0.090033 -0.104682 0.088382 -0.040613 -0.167188 -0.004529 -0.010642 -0.126733 -0.109529 -0.095455 -0.008624 0.179742 0.067005 0.181721 -0.001823 -0.117199 0.092323 -0.031025 0.068197 0.117386 0.066399 -0.108519 0.039794 0.027835 0.041035 -0.081785 0.162535 -0.026390 0.087122 -0.001351 0.090197 -0.021623 0.000460 -0.000930 0.046749 -0.124777 -0.168845 0.010683 -0.000290 0.090457 0.272636 -0.044418 -0.182611 -0.013728 -0.011629 -0.006530 0.138005 -0.070678 0.076219 -0.041671 0.003578 -0.101466 -0.095111 0.048460 0.034710 0.249408 -0.035936 0.023918 0.072472 0.048044 0.057658 -0.018636 0.153736 -0.148840 -0.111961 -0.174170 -0.117233 0.026507 0.008487 0.001368 0.034416 0.042975 -0.150748 -0.081995 -0.038301 0.148409 -0.112310 0.117437 -0.039684 0.047401 0.072617 -0.051144 -0.006370 0.005998 -0.001503 -0.096326 0.112737 -0.050497 -0.107102 0.197984 0.070253
at -0.119079 -0.051208 -0.160738 -0.271087 -0.095680 -0.078682 -0.247263 0.011328 -0.020260 -0.105585 0.004290 -0.086855 0.065792 -0.072602 0.087097 0.043242 -0.142397 0.133886 -0.182456 0.025265 0.261852 0.271265 -0.226447 -0.016811 -0.110128 0.091708 -0.022032 -0.054741 -0.144340 -0.083040 -0.183815 -0.030325 -0.033455 -0.018707 -0.032515 -0.004926 0.226072 0.216139 0.061578 -0.086543 -0.101472 -0.003684 0.166257 -0.170278 0.134390 -0.137288 0.097531 0.125841 -0.169091 0.314879 -0.134716 -0.378995 0.194719 0.091254 0.004003 -0.199041 -0.105813 -0.330064 -0.178027 0.177796 -0.316792 -0.086567 -0.034499 0.086918 0.192753 0.019601 0.161201 -0.037954 -0.078921 -0.068164 0.165494 0.090605 0.004889 0.042034 0.126214 0.076648 0.122439 -0.075120 -0.188718 0.094934 -0.129679 0.166913 0.056217 0.195139 -0.122987 0.162504 0.147317 0.184772 0.260621 0.006472 0.020398 -0.060533 -0.034556 -0.005692 -0.031130 0.039652 -0.014369 -0.092177 0.003837 0.087046 0.081348 -0.003959 -0.181570 0.183078 -0.212694 -0.038485 0.049249 0.179915 -0.100207 0.028321 0.012734 0.163291 -0.076878 0.058746 -0.023679 0.224964 -0.124102 -0.104097 -0.164006 0.039374 0.100577 -0.182242 0.214646 -0.243233 -0.035801 -0.144075 -0.001929 -0.147938 -0.003063 -0.164961 0.048428 0.117958 -0.024748 0.050834 0.117259 0.126464 -0.206542 0.046769 0.151472 0.034601 -0.004534 -0.139995 -0.192162 0.021197 0.069701 0.067341 0.203938 -0.032524 0.220291 -0.103001 0.050648 -0.203244 -0.074942 -0.048210 0.120459 -0.293976 -0.198330 -0.000395 0.146401 0.073025 -0.104737 0.101173 0.140928 0.184386 0.007366 0.069194 0.076808 -0.033660 -0.025221 -0.019206 0.280640 -0.093753 -0.117533 -0.140973 -0.261746 0.080458 0.029392 0.134385 -0.160754 0.108603 0.104511 0.280856 -0.234854 0.022838 -0.193586 0.212779 0.040070 0.196235 -0.058451 -0.219162 -0.029781 0.072022 -0.075699 -0.020416 -0.130583 0.007233 -0.013146 0.092173 0.059011 0.105680 0.128533 -0.009117 -0.025267 -0.228436 0.068074 -0.033388 0.148962 0.023477 -0.100779 0.113233 -0.035761 -0.010993 -0.094927 -0.007288 -0.256842 0.132922 0.030480 0.018352 -0.262787 -0.125990 0.255809 0.195211 0.119302 -0.163133 0.024931 0.041697 -0.157879 0.095229 0.014533 0.124785 0.159079 -0.247686 -0.055224 0.041192 0.055669 -0.017641 -0.167025 -0.020738 0.033266 0.140056 0.209738 0.040294 -0.024092 0.176310 0.070175 -0.044463 -0.071570 0.059466 -0.057075 -0.036304 -0.180293 -0.031641 0.031879 -0.016301 -0.016068 0.166411 -0.099224 0.143223 -0.179543 0.074928 0.048755 0.024982 0.110163 -0.065716 0.081120 0.059735 0.115287 -0.138194 -0.096401 -0.023086 0.025386 0.121894 -0.091688 -0.045777 -0.112956 -0.049962 0.102483 0.039619 0.031141 0.162294 0.007393 -0.159107 -0.153657 -0.219054 0.069841 -0.026390 0.118293 -0.048077 -0.086502 0.081687 -0.125549 0.061194 -0.038576 0.055051 0.110373 -0.023248 0.008604 -0.052833 0.087438 0.004284
from -0.034274 0.070859 -0.167814 -0.166962 -0.127365 -0.080801 -0.156081 -0.036825 0.037451 -0.048873 0.004261 -0.045210 -0.038122 0.078098 -0.091318 -0.041986 -0.177774 0.091007 -0.085861 -0.235390 0.269801 0.305078 -0.150709 -0.092869 -0.135577 0.097940 -0.076930 0.037592 -0.220744 0.074479 -0.047609 -0.041486 -0.068421 0.068996 0.140524 -0.066174 0.180461 0.083521 0.184371 0.004588 0.006097 0.029686 0.128676 -0.035568 0.102032 -0.156147 -0.016459 -0.006497 -0.085272 0.207722 -0.169102 -0.213779 0.037664 0.002423 0.061272 -0.200674 0.121926 -0.091396 -0.172711 -0.095695 -0.086030 -0.007186 -0.134299 0.069671 0.027807 0.066048 0.138528 -0.095384 0.023007 0.057068 -0.048124 -0.178109 -0.227209 0.016038 0.110582 -0.111037 0.165437 -0.097033 -0.058338 0.002744 -0.062245 0.206377 -0.077957 -0.011634 -0.020153 0.179860 0.086224 0.006294 0.307758 -0.047297 -0.127798 -0.078694 0.041387 0.015591 -0.129226 -0.020127 -0.043002 0.000834 -0.029885 -0.127443 0.164103 -0.137368 -0.110172 0.188061 -0.142155 -0.171390 0.083049 0.008493 -0.106182 -0.031167 -0.082371 0.213044 -0.071356 0.161047 0.000027 0.194828 0.129852 -0.195171 -0.040373 -0.010564 0.052348 -0.002402 0.161847 -0.071156 -0.150864 -0.096005 0.048176 0.072134 0.102596 -0.111924 0.062368 0.144104 0.081452 0.084006 0.234945 0.044537 -0.084954 -0.032875 0.119310 -0.179725 -0.007842 -0.010493 -0.027112 -0.036546 0.016230 0.021531 0.054375 -0.056073 0.148123 -0.015687 -0.069395 -0.283795 0.042473 -0.038248 -0.019343 -0.155290 -0.177754 -0.026611 0.104931 0.151054 -0.066813 -0.019166 0.089280 0.126847 -0.036671 -0.047440 0.014282 -0.102485 0.109075 0.027175 0.267179 0.012214 -0.281586 -0.072485 0.021179 0.036971 0.146550 0.017112 -0.123196 -0.090024 0.030155 0.191260 -0.125700 0.023025 -0.257820 0.126406 0.047097 0.002250 -0.031661 -0.188168 -0.051789 -0.028539 -0.068343 -0.049608 -0.032827 0.014364 -0.023939 0.225671 0.018220 0.029900 0.023540 -0.087177 -0.056668 -0.165624 0.004022 -0.017858 0.101284 0.156726 -0.248396 -0.023855 0.012528 0.039861 0.113882 0.080441 -0.055638 0.049458 0.000780 -0.008858 -0.034054 -0.001174 0.246572 -0.017440 0.146843 -0.147640 -0.015380 -0.023404 -0.233536 0.199751 0.093936 -0.052196 -0.032623 -0.126216 -0.034019 -0.028042 -0.063807 0.136735 -0.147998 -0.018859 0.114942 0.167090 0.043653 -0.035445 0.112908 0.137408 0.098666 -0.060201 -0.016853 -0.008381 0.115522 0.086592 0.016806 -0.040475 -0.092292 -0.126930 -0.163806 0.143690 -0.040451 0.310056 -0.048239 0.073064 0.038636 -0.057407 0.074415 -0.133161 0.239721 0.108267 0.144087 -0.100959 -0.154363 0.086211 -0.080848 0.213028 0.016677 -0.119300 -0.163234 -0.025454 -0.024590 -0.114077 0.016994 0.140132 0.003910 -0.162992 0.001097 -0.134050 0.155800 -0.184174 -0.067646 -0.020810 0.133093 0.087716 -0.108960 -0.068624 0.032866 -0.067486 0.027779 0.117496 -0.094323 -0.001518 0.017098 -0.165077
his -0.065477 0.235363 0.039828 -0.281656 -0.123395 -0.122811 -0.190992 -0.044349 0.088842 -0.188331 -0.017490 -0.058622 0.192897 0.066918 0.018098 -0.050109 -0.146419 0.033791 -0.025395 0.050262 0.013113 0.138944 -0.155297 -0.294658 -0.114045 -0.000149 0.007204 -0.054878 -0.141680 0.014151 -0.058049 -0.029499 0.022861 0.086065 0.067482 -0.046694 0.157782 -0.013036 0.234144 -0.195695 -0.017862 0.076258 0.065687 -0.030871 0.104096 -0.164241 0.223713 -0.038650 -0.109354 0.236194 0.054739 -0.126125 0.074356 -0.005205 0.057776 -0.092427 -0.167364 -0.020431 -0.185240 -0.059545 -0.188848 -0.119481 -0.038721 -0.016088 -0.088697 0.081389 0.301026 -0.072035 0.040000 -0.094799 0.242438 -0.207235 -0.166741 -0.015632 0.030286 0.111752 0.106413 -0.034222 0.031766 -0.009105 -0.326347 0.228367 0.090749 0.113471 0.110530 0.107877 0.171082 0.070642 0.129670 0.199173 -0.182336 -0.097618 -0.091271 0.018890 -0.243332 -0.037231 -0.067783 -0.014029 0.013235 0.004274 0.237861 -0.180470 -0.059414 0.213324 0.031892 -0.125708 0.079284 0.169455 -0.014123 0.132302 -0.075230 0.092357 -0.184638 -0.141320 -0.086077 0.261666 0.074416 -0.092804 -0.030725 -0.145784 0.245535 0.005258 0.152777 -0.149205 -0.043637 0.138678 0.160453 0.045868 -0.194162 -0.078979 0.058043 -0.026350 -0.020804 0.246346 0.099253 0.145743 -0.221089 0.062382 0.073256 0.061621 -0.124851 0.071696 -0.027482 -0.241484 0.030623 0.049637 -0.002105 -0.062861 0.086005 -0.122310 -0.100681 -0.090938 0.021832 -0.164088 0.117899 -0.194751 -0.172695 -0.077680 -0.160837 0.066136 -0.060984 0.014554 0.100593 0.017693 -0.058155 -0.023357 -0.131224 -0.215753 0.138720 0.023021 0.029668 -0.114447 -0.078184 -0.084537 -0.059010 0.090711 0.110962 -0.030143 0.068866 -0.066919 0.157094 0.071937 -0.088416 -0.021743 -0.147817 0.121734 -0.110550 0.027179 0.026279 -0.184595 -0.230262 0.240613 -0.071663 0.059977 -0.042573 -0.104609 0.120930 0.273730 0.021055 0.083059 0.127275 0.112178 -0.079735 0.039648 -0.162917 0.001048 0.106162 -0.140417 -0.161287 0.211738 -0.005504 0.194758 -0.114919 0.051220 -0.149190 0.055774 0.007702 -0.317598 -0.161442 0.035701 0.312285 0.118657 0.111064 -0.124854 -0.033517 0.108790 -0.168450 0.188714 0.140124 0.071354 -0.212576 -0.012591 -0.125160 0.189492 0.009320 0.037055 -0.238802 -0.050937 0.024132 0.093526 0.171270 0.032059 0.103750 -0.113520 0.140205 -0.094913 -0.040798 -0.022657 0.000666 0.139626 -0.070097 -0.063209 -0.123340 0.055076 0.081446 0.109448 -0.015489 0.134474 0.037272 0.030634 0.039813 -0.184085 -0.077484 0.068246 0.273890 0.011863 0.117796 -0.127881 -0.263746 0.062538 0.032828 0.179982 -0.047680 -0.120201 -0.265865 -0.035697 -0.164436 0.118917 -0.064043 0.259808 0.003178 -0.153106 -0.040571 -0.076714 0.049629 0.090678 0.069720 -0.043590 -0.170108 0.192067 -0.083753 0.290409 0.036722 -0.078614 -0.156019 0.041796 -0.084523 -0.014675 0.039069 -0.061474
it 0.009244 0.004273 -0.044466 -0.219798 -0.079492 -0.071971 -0.165020 0.022126 0.068871 0.086236 -0.175684 -0.123078 -0.079266 0.060964 0.138043 -0.071814 -0.264872 0.037310 -0.157293 -0.133176 0.156273 0.167476 -0.058342 0.030218 -0.075761 0.162672 -0.158211 -0.045668 -0.171426 0.075483 0.107318 0.074016 -0.050244 0.139016 0.214817 0.032688 0.278304 -0.035481 0.174121 0.052002 0.122364 -0.097702 -0.027092 -0.028163 0.149171 -0.103141 -0.009352 -0.069820 -0.210655 0.173469 -0.020786 -0.068852 0.109982 0.088500 0.092813 -0.146639 -0.013160 -0.190382 -0.032228 -0.207300 -0.123430 -0.334148 -0.198644 -0.054555 -0.011916 0.001240 0.214876 -0.036206 0.101982 -0.039871 -0.107915 -0.022950 -0.214487 0.065802 0.097003 -0.204589 0.124749 -0.074894 -0.146847 0.010848 -0.108882 0.175468 0.012464 0.164063 0.020680 0.188601 0.193626 0.106089 -0.002476 -0.193535 0.076641 -0.018178 0.104749 0.084920 0.027180 -0.012346 -0.009307 -0.195029 -0.037757 0.063761 0.172527 -0.041556 -0.068865 0.132563 -0.048973 0.002052 0.172199 0.110757 -0.196791 -0.041220 0.149397 -0.019977 -0.218789 -0.029193 -0.018473 -0.002838 0.172441 -0.116517 -0.103559 0.017222 -0.066089 0.156716 -0.020095 0.030577 -0.141232 0.059738 -0.034626 -0.030308 0.304300 -0.033471 0.188016 0.048097 0.214277 0.054482 0.155237 0.117839 -0.107314 -0.008693 0.112134 -0.064083 0.045861 0.059857 -0.088823 0.145992 -0.006240 0.208452 -0.110175 -0.096162 0.173946 0.062546 -0.047067 -0.290148 -0.172596 -0.238429 0.114573 -0.047276 0.053071 0.003959 0.074029 0.061092 -0.191701 -0.027804 0.113385 0.274004 0.011164 -0.007128 0.171561 0.084170 -0.024267 -0.094043 0.313524 -0.036420 -0.217525 -0.209244 -0.182443 0.171205 0.015042 0.126484 -0.203692 -0.009285 0.026251 0.209406 -0.002866 0.139210 -0.174505 0.118888 -0.091851 0.007864 -0.091873 -0.187392 0.200885 -0.015002 -0.020818 -0.058658 0.024902 -0.113570 -0.032526 0.232379 -0.122254 0.096902 0.006853 -0.055888 -0.173748 0.066223 -0.014051 -0.014345 0.012187 0.210668 -0.067101 0.055864 -0.141532 0.078851 -0.075684 -0.068555 -0.091554 -0.017707 -0.151226 0.147537 0.056904 -0.126854 0.035162 0.006883 0.119035 -0.034738 0.152129 -0.023427 -0.061896 0.232744 0.006993 0.009549 0.103557 -0.089797 0.015808 0.130776 -0.100985 0.195826 -0.034610 0.114451 0.052807 0.043075 -0.030362 0.048982 0.140564 0.122762 -0.130990 -0.028073 0.034409 0.130960 0.216728 0.144371 0.037554 0.001345 0.051475 -0.113056 0.108068 0.282756 -0.131520 0.119582 0.013644 -0.108509 -0.019625 -0.017977 0.174521 -0.120309 0.143549 0.085717 0.067386 0.002375 -0.020061 -0.036288 -0.060121 0.070254 -0.038837 -0.141222 -0.119829 -0.169432 -0.024481 -0.063188 -0.040748 0.053534 0.190757 -0.119189 0.120073 -0.185746 0.162859 -0.097278 -0.071655 0.046908 0.097916 -0.100118 0.111172 -0.036314 0.020048 0.056248 -0.238322 0.034874 0.044643 -0.027714 0.273471 0.074622
an -0.030259 0.146133 0.069885 -0.200831 -0.051764 -0.075533 0.062585 -0.087535 0.138239 -0.073427 -0.222629 -0.164216 0.038426 -0.004212 -0.034425 -0.008294 -0.220553 0.041135 -0.193139 -0.043727 0.279115 0.057202 -0.286663 0.079838 0.193139 0.127735 -0.108052 -0.088920 -0.081619 0.063777 -0.032717 0.027700 -0.065763 -0.005543 0.121496 -0.081424 0.116810 -0.015698 -0.085605 0.034806 0.027089 0.082050 -0.041607 -0.171780 0.002334 -0.097128 -0.038252 0.076358 -0.199395 0.026106 -0.166172 -0.229505 0.030207 0.152953 0.004434 -0.153594 0.031629 -0.283318 -0.174308 -0.125531 -0.115768 -0.117998 -0.033045 0.095203 -0.029751 0.063247 0.210108 0.041450 -0.027311 0.136780 -0.058187 -0.033391 -0.118394 0.001100 0.148496 -0.123556 0.166600 0.057578 -0.035772 -0.016767 -0.122370 0.162989 -0.091051 -0.124321 0.115134 0.101977 0.110836 0.166550 0.179777 -0.116608 -0.128868 -0.082100 -0.205160 -0.009099 -0.028069 0.006986 -0.021856 -0.030428 -0.007290 0.027938 0.127368 0.029605 -0.010944 0.249811 -0.094270 -0.238645 0.206612 0.305906 -0.139797 -0.019929 -0.074361 0.051206 -0.033159 -0.036999 0.060913 0.016090 -0.029966 -0.165186 0.097281 0.033358 0.129955 0.038896 0.176536 -0.060969 -0.210794 0.038095 -0.162801 -0.021052 0.116718 -0.065779 0.178919 0.111433 0.106800 0.027256 0.256298 0.278803 -0.149714 -0.092434 0.058594 -0.042552 0.096928 0.065677 -0.073852 -0.011168 -0.019839 0.263309 -0.044751 -0.005109 0.052739 0.004190 -0.370144 -0.286269 -0.122184 0.013611 0.184532 -0.071974 -0.132275 -0.063334 0.095138 0.097812 -0.084339 -0.067013 0.058780 0.045478 -0.003966 -0.006260 0.005684 0.091341 0.079009 -0.039527 0.194367 -0.064409 -0.003060 -0.277194 0.058729 0.040603 -0.003471 -0.078221 0.052346 -0.087255 0.264761 0.052693 -0.147003 0.083100 -0.202065 0.078965 -0.043231 0.094347 -0.046120 -0.233042 0.155482 0.035721 -0.095647 -0.063168 0.060953 0.085224 0.004368 0.072700 -0.085344 0.165455 -0.004330 -0.097958 -0.105861 -0.124324 -0.193550 -0.024813 0.135105 0.028116 -0.168512 0.163332 -0.048112 0.059353 -0.010259 -0.012644 -0.255800 0.051829 -0.295546 -0.011002 -0.172170 -0.162990 0.354185 -0.092558 0.069449 -0.021260 0.024294 -0.073883 -0.074796 0.071320 0.009787 0.043827 -0.130384 -0.196493 -0.026925 0.047418 0.062028 -0.007788 -0.137355 -0.144094 0.146224 0.204167 -0.019789 -0.056097 -0.168266 0.098504 -0.006982 -0.064679 0.026538 0.078550 0.079122 0.146765 -0.057858 0.044520 0.037879 -0.004603 0.035451 0.045090 0.001960 0.189688 0.044930 0.054828 -0.084975 -0.031219 0.174015 0.066220 0.239227 0.138400 0.142300 -0.003102 -0.136828 -0.144157 -0.055642 0.102176 -0.039775 -0.068187 -0.131911 -0.109333 0.005605 -0.081857 -0.094717 0.158480 -0.039254 0.036146 0.085816 -0.309040 0.078940 -0.075402 -0.087115 -0.072264 0.099637 0.089519 -0.126917 0.077796 0.028932 -0.113364 -0.092989 -0.137147 -0.165112 -0.048310 0.076468 0.193688
were 0.032089 -0.027350 0.105037 -0.172710 0.034830 -0.042314 -0.110043 0.120011 -0.062814 -0.032751 0.037679 0.191555 0.032037 0.068901 0.033467 -0.054956 -0.168053 -0.031655 -0.117326 -0.042751 0.201427 0.131915 0.054770 -0.016283 -0.193154 -0.013032 -0.033284 0.007919 -0.054099 -0.057548 -0.095839 0.023852 0.093548 -0.025300 -0.018613 0.018857 0.105467 0.112266 0.138551 -0.125967 0.151551 0.028730 0.156312 0.128805 0.137689 -0.148406 -0.085797 -0.050232 0.046178 0.127745 -0.008359 -0.059200 0.218292 0.011200 0.061524 -0.189681 0.234615 -0.135424 -0.080009 -0.013444 -0.019057 -0.326538 -0.150259 0.099314 0.030456 0.152303 0.060148 -0.101196 -0.085141 0.223472 -0.122749 -0.085924 -0.077480 -0.133763 -0.161376 -0.254973 -0.066845 -0.014477 -0.070897 0.039200 -0.163230 0.201329 0.138495 0.186784 0.174354 0.018801 0.179612 0.090089 0.211495 0.045768 -0.195728 -0.058149 -0.122300 0.158650 0.061936 -0.008615 0.139286 -0.073107 0.030955 -0.012420 0.142623 0.051074 0.015349 0.094556 -0.005119 -0.257735 0.002775 -0.086317 -0.226267 -0.069878 0.205082 0.070200 0.050512 0.045201 -0.175931 0.029742 -0.059393 -0.246833 0.119458 0.230341 0.141646 -0.012063 0.179997 -0.054954 -0.056147 0.013265 0.038752 -0.048766 0.296034 -0.072311 0.084584 0.180029 -0.008155 0.158099 -0.032427 0.030963 -0.124331 0.143471 0.144001 -0.090611 -0.120981 0.149194 0.178363 0.024709 0.197732 -0.033246 0.125838 -0.045697 0.213664 0.087460 0.019267 -0.182766 -0.170859 -0.141401 -0.029358 -0.012699 -0.127255 -0.015522 0.091722 -0.089157 0.085023 -0.063478 -0.003659 0.045172 -0.038415 0.129577 -0.034734 -0.105038 0.101936 -0.001469 0.160974 -0.014991 -0.339487 -0.042231 -0.113763 0.094792 0.017207 0.162046 -0.078101 0.068361 -0.004034 0.081269 0.102427 -0.123411 -0.164060 -0.044379 -0.097549 0.119272 -0.138403 -0.108981 -0.012501 0.005765 -0.011377 0.113066 -0.005529 0.039409 -0.149558 0.159661 0.074495 0.181563 0.071271 -0.087249 0.037351 -0.140286 -0.061376 -0.020178 0.051254 0.152231 -0.054908 -0.120549 -0.119411 -0.089882 -0.093832 0.108713 0.000285 0.074062 0.043123 -0.088177 -0.140358 -0.083790 0.161294 0.062749 0.077467 -0.153894 -0.021518 0.142597 -0.095619 -0.105055 0.186243 -0.045972 -0.127060 0.014809 0.109526 -0.117068 0.119226 0.046923 0.025992 0.106535 0.091282 0.023208 0.043993 -0.177057 0.195340 0.248013 0.124198 -0.090028 -0.048727 0.260761 -0.030015 0.209562 0.045958 -0.135319 -0.048570 -0.082736 -0.123084 0.168226 0.006267 -0.021305 -0.171644 0.223515 -0.038063 -0.237608 -0.099379 0.077717 0.257676 -0.053679 -0.049412 0.104533 0.019637 0.168368 -0.140147 0.022440 0.011893 -0.082964 -0.151835 0.172001 -0.055168 -0.057046 -0.087659 0.055791 0.114922 -0.269956 -0.316476 -0.034967 -0.160225 -0.143796 0.100747 -0.099764 0.037458 0.069822 -0.120448 -0.082047 -0.013375 -0.081730 0.047344 -0.014024 -0.056595 -0.178825 0.035736 -0.267069
are -0.032399 0.064133 0.150667 -0.079005 0.045064 0.039227 -0.068773 0.214958 0.170465 -0.001888 -0.214111 0.095587 -0.142955 -0.032063 0.049160 -0.257400 -0.243677 0.159167 -0.151883 -0.097979 0.260931 -0.024844 -0.080023 0.069004 0.011355 0.157515 0.068454 0.090453 -0.302702 0.026642 -0.020867 0.155012 0.098953 -0.216014 -0.093290 0.050669 0.054368 0.027358 0.014742 -0.061655 0.119801 0.119211 0.236930 0.098142 0.142783 -0.077039 0.040849 0.008756 -0.056838 0.075577 -0.082187 -0.191988 0.115321 -0.087154 -0.009183 -0.191230 0.268943 -0.121597 -0.200967 -0.113632 -0.002182 -0.239359 -0.194010 0.219640 -0.004084 -0.048355 0.048353 -0.067623 0.134835 0.215238 -0.197450 -0.055127 0.012829 -0.115723 -0.065842 -0.102958 -0.137718 -0.003854 0.026728 -0.164946 -0.152231 0.117830 0.103067 0.123556 0.087394 -0.042179 0.041985 -0.051104 0.047837 -0.031035 -0.021716 -0.160246 -0.268729 0.007220 0.036398 -0.001789 0.029987 -0.157580 0.071049 -0.239196 -0.009995 0.129101 -0.002586 0.055434 0.084095 -0.104957 0.015722 -0.197045 -0.340650 0.000435 0.122695 0.043204 0.139338 0.089604 -0.019536 -0.036963 0.091025 -0.244677 0.126815 0.215043 -0.156910 -0.005909 -0.036010 -0.043539 -0.158474 -0.105586 0.010502 0.009323 0.228000 0.007163 0.291717 0.257845 0.036590 -0.008820 0.079888 0.048160 -0.369338 0.361236 0.051842 0.119167 -0.211463 -0.036415 0.152600 0.081497 0.155748 0.056085 -0.068249 -0.079281 0.212797 0.150268 0.010111 -0.350669 -0.207890 0.071426 0.123785 -0.121264 0.001028 0.304795 0.152218 0.079226 -0.107050 -0.009829 0.130663 0.139761 -0.036261 0.020345 0.014049 -0.090278 0.220499 0.067982 0.231192 0.076022 -0.129035 -0.207402 -0.057402 0.195157 -0.041885 0.000451 -0.102478 -0.037814 0.008999 0.139796 0.022345 -0.078641 -0.074310 0.165240 -0.064022 -0.018772 -0.330070 -0.033726 -0.042728 -0.058111 -0.062260 0.012216 -0.060069 -0.064093 -0.226291 0.039621 -0.079950 0.034323 0.222038 -0.253324 0.069539 -0.252111 0.104354 0.034813 0.053342 0.332055 -0.106411 0.019248 0.077049 0.037483 -0.048613 -0.146668 -0.110317 -0.104826 0.042274 0.092504 -0.092568 -0.004491 0.116831 0.117525 0.093693 -0.023651 -0.057563 0.090620 0.017403 0.154161 0.199993 0.093501 0.012189 -0.095667 -0.038460 -0.032462 -0.167280 -0.013238 -0.009683 0.331020 0.104236 0.120531 0.044044 0.151250 -0.070227 0.163125 0.010201 -0.319008 -0.169136 0.259175 0.023559 0.214714 0.061345 -0.135414 0.089972 -0.118364 0.085147 0.304875 -0.096609 0.269925 -0.083884 0.028201 0.025902 -0.122147 -0.037473 0.003142 0.340300 -0.125349 0.002900 0.094220 0.123519 0.102554 -0.075360 0.075162 0.025363 -0.213018 -0.222507 0.089412 0.078526 -0.419573 -0.054527 -0.144918 0.274411 -0.295467 -0.160119 -0.039479 -0.138273 -0.095568 0.227123 -0.042783 0.058426 -0.041763 0.009144 -0.127031 -0.111729 -0.121911 -0.040560 -0.027503 -0.089277 -0.073352 0.119616 -0.167472
which 0.008957 0.037649 0.003676 -0.239807 -0.015926 -0.009533 0.049234 -0.008602 0.039534 -0.055120 -0.116441 -0.177766 0.034506 0.092658 -0.017035 -0.033836 -0.219052 0.019304 -0.108037 -0.028491 0.176738 0.147432 -0.116687 -0.040782 0.040532 0.021069 -0.053000 -0.058408 -0.135535 0.056845 0.067533 0.078604 -0.033749 0.004354 0.170847 0.107184 0.184154 0.004460 -0.034526 -0.026542 0.057680 0.027127 0.068572 -0.064735 0.112027 -0.066278 0.069390 -0.017970 -0.055980 0.068815 -0.020557 -0.059909 0.089758 0.030091 0.066108 -0.115288 0.037330 -0.148570 -0.161538 -0.096328 -0.006786 -0.201603 -0.142417 0.036595 0.004987 0.075244 0.116930 0.030665 -0.001401 0.058529 0.011692 -0.075919 -0.076865 -0.072396 0.084447 -0.184461 0.123515 -0.062733 -0.015568 0.025224 -0.135182 0.114810 0.034182 0.039740 -0.084920 0.033362 0.082189 0.002122 0.070087 -0.006120 -0.101916 -0.183414 -0.211744 0.047201 -0.108073 -0.066625 -0.080214 -0.117025 -0.078537 0.042516 0.092011 -0.021798 -0.095283 0.135298 -0.040681 -0.028758 0.034340 0.145261 -0.232195 -0.036965 -0.004006 -0.015716 -0.080592 -0.028062 0.105734 -0.069724 0.026113 -0.183188 0.089792 -0.019198 0.052935 0.128130 0.066883 -0.061717 -0.117902 0.033815 -0.007139 -0.030749 0.209112 -0.021962 0.110518 0.155926 0.139555 0.034850 0.168108 0.103647 -0.133967 0.049025 0.072818 -0.012241 -0.007915 0.110725 0.004538 -0.017693 0.118081 0.034436 0.043417 0.015295 0.150787 0.093817 0.016610 -0.283716 -0.062289 -0.028791 0.112631 -0.021089 -0.082490 0.008914 0.058276 -0.028821 -0.051223 0.061480 0.070255 0.161804 -0.031336 -0.037576 0.007421 -0.056978 0.116720 -0.081978 0.237133 -0.009971 -0.163306 -0.148815 -0.050969 0.086923 -0.027830 0.005377 -0.093590 0.030325 0.101465 0.048239 -0.005120 0.057481 -0.152156 0.106273 -0.021763 0.043356 -0.157042 -0.198094 0.099476 -0.034130 0.017641 0.047352 -0.006474 -0.117208 -0.113191 0.224032 -0.027278 0.168394 0.008450 -0.041374 -0.164914 -0.045224 -0.065301 0.012938 0.054985 0.137185 -0.007684 0.007603 -0.049042 0.042718 -0.062466 -0.033398 -0.105754 -0.039243 -0.041762 -0.036712 -0.102664 0.015506 0.133582 0.046368 0.128685 -0.037452 0.064007 0.042204 -0.138309 0.059209 0.102600 -0.065305 0.018614 -0.034992 0.077931 -0.055076 -0.049674 0.151881 -0.097819 0.080769 0.046576 0.104479 0.006470 0.012589 0.029540 0.133452 -0.055152 -0.037736 0.058436 0.105270 0.074399 0.142689 0.022342 -0.086378 -0.002927 -0.070036 -0.027548 0.116896 -0.079561 0.152890 -0.104565 -0.104051 -0.041988 -0.092715 0.058480 -0.068220 0.250309 0.082013 0.012189 0.103502 -0.038127 0.015613 -0.011117 0.122727 -0.097725 -0.047118 -0.039276 -0.005115 0.053305 -0.074814 -0.037980 0.057225 -0.006102 -0.194061 -0.027931 -0.081184 0.167346 -0.021805 0.139140 -0.101805 0.051382 -0.043769 -0.021606 -0.079961 -0.043357 -0.100884 -0.115634 0.003866 -0.021026 -0.078800 0.161342 -0.013931
this 0.011792 0.035871 -0.021564 -0.154992 -0.015451 -0.056388 0.088712 0.027142 0.053992 -0.062387 -0.077765 -0.176348 0.019173 0.076132 0.018807 -0.159404 -0.130117 -0.014197 -0.068024 -0.054418 0.196772 0.132236 -0.072562 -0.026743 0.081929 0.184186 -0.138298 -0.103610 -0.136917 0.064041 0.025745 0.136162 -0.020308 0.066361 0.082228 0.074616 0.157820 -0.037423 0.034467 0.064534 0.084250 -0.040137 0.032608 -0.048247 0.058554 0.035783 0.056231 -0.053311 -0.094748 0.014496 -0.075336 -0.073238 0.054277 -0.061022 -0.112108 -0.152544 -0.005953 -0.105135 0.029658 -0.145344 0.074561 -0.151433 -0.096536 -0.014934 0.062227 0.035419 0.205875 -0.036552 -0.016848 0.079984 -0.017585 -0.105960 -0.122942 0.003422 0.075505 -0.178561 0.091805 -0.074154 -0.003469 -0.053353 -0.101030 0.196002 -0.003857 0.005341 -0.018369 0.051112 0.119171 0.039149 0.046455 -0.011227 -0.090586 -0.237587 -0.167240 -0.037298 -0.075227 -0.007833 -0.034059 -0.137984 -0.056946 0.038269 0.116285 0.004666 -0.057620 0.042694 -0.004620 -0.043982 0.053518 0.072997 -0.177654 -0.028314 0.088865 0.040613 -0.111152 -0.041892 0.003481 -0.029176 0.031369 -0.172285 -0.049426 0.112496 0.017641 0.120845 0.138884 0.027297 -0.176733 0.123900 0.023975 -0.012395 0.185915 -0.066013 0.218627 0.033958 0.138776 0.092271 0.214581 0.142193 -0.165075 0.119760 0.106504 -0.005875 -0.050248 0.043390 -0.022388 0.004488 0.096626 0.134573 -0.015997 -0.064042 0.210935 0.070138 -0.048158 -0.286866 -0.064828 -0.057813 0.060045 -0.086495 -0.085480 0.070673 0.024859 0.069178 -0.032286 0.065120 0.080315 0.179095 -0.057501 -0.054588 0.057188 -0.037824 0.066662 -0.147778 0.132351 -0.059722 -0.005413 -0.166795 -0.025127 0.101772 -0.074019 0.048433 -0.009400 0.060064 0.014036 0.131926 -0.047390 0.101697 -0.189261 0.060627 -0.031547 0.130035 -0.135783 -0.097864 0.147693 0.005299 -0.060030 0.077251 0.080555 -0.012313 -0.037549 0.202793 0.016592 0.122772 0.068014 -0.029645 -0.120853 0.046949 -0.085299 -0.091404 0.093187 0.194579 0.023733 0.019795 -0.023164 -0.073033 0.024085 -0.057152 -0.144368 0.030135 -0.106510 -0.103904 0.014876 0.000307 0.135520 0.057373 0.135539 0.056249 0.050976 -0.013672 -0.110693 0.051412 0.114413 0.077192 -0.004236 0.052060 -0.050933 0.028567 -0.013804 0.155037 -0.094648 0.038005 0.144835 0.115040 0.037525 0.000896 0.035855 0.160262 -0.017328 -0.121860 0.052890 0.073263 0.000649 0.142975 -0.049140 -0.098814 0.026163 -0.000474 0.024542 0.104382 -0.068592 0.183198 -0.042551 -0.087537 -0.148342 -0.091613 -0.007716 0.026830 0.269872 0.023382 0.002777 0.069621 0.032566 0.040243 0.003668 0.167708 -0.026777 -0.041300 -0.149588 -0.102732 0.075661 -0.109587 -0.037300 0.074248 0.098514 -0.123397 -0.011229 -0.075908 0.143614 0.025273 0.016343 -0.060533 -0.056247 -0.008009 0.020867 0.049850 -0.091684 -0.046280 -0.149471 0.068605 0.034783 -0.122279 0.167017 -0.049272
also -0.118778 0.130471 0.002819 -0.186866 0.019265 0.074218 -0.002433 0.198389 0.058780 -0.110782 -0.018392 -0.108153 0.085366 -0.020657 -0.033141 -0.049163 -0.147742 -0.017122 -0.114128 -0.078735 0.188589 0.079654 0.004709 0.054184 0.084348 -0.006211 0.006142 -0.045985 -0.256126 -0.026554 -0.013689 -0.050515 0.011774 -0.005117 0.114559 0.105900 0.274806 -0.000238 0.115217 -0.008512 0.218676 0.072220 0.100970 -0.105236 0.147243 -0.131020 0.089893 -0.106818 -0.034639 0.098999 -0.034285 -0.177044 0.035948 0.071835 -0.006731 -0.063901 -0.044396 -0.227366 -0.268422 0.057748 -0.061520 -0.135899 0.004867 0.052189 -0.088598 0.034905 0.006253 0.037740 0.078460 0.075772 0.028184 -0.204454 -0.100385 -0.087431 0.107297 -0.049188 0.124884 0.017348 -0.053447 -0.089392 -0.061938 0.185249 0.015180 0.053482 -0.027211 0.187557 0.160999 0.087975 0.063675 -0.037591 -0.030969 -0.148779 -0.108180 -0.011268 -0.101037 -0.047693 -0.049148 -0.014703 -0.028408 -0.081766 0.158605 0.036463 -0.031252 0.111726 -0.059921 -0.091600 0.011370 0.153084 -0.219469 0.090676 0.027380 0.024803 -0.061366 -0.017262 -0.064251 0.047156 -0.029718 -0.010669 0.058198 0.002234 0.101822 0.071359 0.016365 -0.163284 -0.108234 -0.031546 0.030548 0.016746 0.153521 -0.092556 0.027872 0.211768 0.089756 -0.094216 0.118163 0.192789 -0.068457 0.159774 0.002198 0.069691 0.037563 0.069059 -0.055092 0.056183 0.061877 0.128029 0.097818 0.073925 0.203413 -0.008366 -0.104904 -0.250126 -0.107474 -0.005183 0.213834 -0.162359 -0.209968 0.040527 0.198376 0.046903 -0.044569 -0.083068 0.126237 0.078306 0.005793 0.056082 -0.074584 -0.080361 0.102882 -0.113282 0.189187 -0.053114 -0.124825 -0.122110 -0.027859 0.048583 -0.079105 0.006507 0.002424 0.048882 0.021616 0.049469 -0.049045 0.048394 -0.093788 0.045569 -0.082733 -0.127790 -0.104549 -0.226063 0.038007 0.044504 -0.018046 0.093675 -0.155427 -0.150480 -0.149404 0.182997 0.029249 0.107336 -0.009320 -0.088306 -0.024699 0.022809 -0.066275 0.030397 0.136222 -0.027706 -0.089853 0.129271 -0.038761 0.065791 -0.085026 -0.089789 -0.127177 -0.111239 -0.046113 0.043412 -0.183351 0.023876 0.075956 0.085218 0.110600 -0.004627 0.022978 -0.008210 0.021343 -0.024613 0.048716 0.033694 -0.168478 -0.195835 -0.163930 0.068782 -0.014511 0.027876 -0.074312 0.100915 0.078900 0.152420 0.063348 0.082004 -0.053803 0.154682 -0.037089 -0.166301 -0.053907 0.045470 0.000529 0.150533 -0.126712 -0.108204 -0.019356 -0.058177 0.056862 0.158529 -0.134371 0.187425 -0.111491 -0.029409 -0.087865 0.029195 -0.005165 -0.016571 0.341217 0.083818 0.051886 0.039175 -0.076378 -0.022630 0.020549 0.136406 -0.013123 -0.090180 -0.102958 -0.012336 0.038319 -0.011737 -0.163657 0.102727 0.113037 -0.160412 -0.194171 -0.141283 0.193202 0.020470 0.113523 -0.063289 0.085937 0.067774 -0.028928 0.040832 0.024716 -0.181855 -0.004951 0.043805 -0.084095 0.032519 0.065817 -0.066789
be 0.061311 0.085350 0.222949 -0.151786 0.097000 0.032592 0.094712 0.113727 -0.012518 -0.070328 -0.025712 -0.080118 0.051981 0.015152 0.143223 -0.134106 -0.259410 -0.024249 -0.069488 -0.127866 0.250222 0.081009 -0.055557 0.055714 -0.053195 0.082887 -0.007407 -0.059546 -0.054449 0.098613 0.009916 0.010721 0.045546 -0.070282 0.049396 0.014174 0.337319 0.073083 -0.121359 -0.019240 0.005787 -0.107603 0.019670 -0.037894 0.033518 0.022390 -0.030491 0.041011 -0.164805 0.014989 -0.044412 -0.166627 0.111012 0.074527 -0.136384 -0.121691 0.031608 -0.039871 -0.052083 -0.222062 -0.032207 -0.189925 -0.223684 -0.047665 -0.069691 -0.065653 0.026487 -0.139700 0.090444 0.129949 -0.032440 0.036997 -0.123658 0.024667 -0.034453 -0.168486 -0.101770 -0.031362 -0.000024 -0.101387 -0.268613 0.089115 0.086024 0.075150 0.040746 -0.042882 0.083847 0.149646 -0.139497 0.005170 -0.114087 -0.119235 -0.207936 0.017282 -0.032628 0.026242 0.073794 -0.010895 0.001035 0.009884 0.096352 0.020161 -0.089607 0.081550 0.109376 -0.084312 0.084883 0.015441 -0.184327 -0.109070 0.062327 0.090942 0.061042 -0.022209 -0.108673 0.017179 -0.043918 -0.169119 0.070571 0.162464 -0.047499 0.030043 0.187206 0.048201 -0.149587 0.091935 0.007366 -0.023002 0.361216 0.021992 0.168686 0.018165 0.286702 -0.008363 0.087068 0.146414 -0.111966 0.007293 0.016788 -0.084528 -0.164566 0.068998 0.133229 0.180728 0.134829 0.198554 -0.028723 -0.034506 0.129684 0.106395 -0.081569 -0.224099 -0.149718 -0.073886 0.076078 -0.074822 0.022544 0.080747 0.126371 0.020287 -0.057555 0.043794 0.108097 0.147532 -0.049392 0.062953 0.003689 -0.050994 0.135451 -0.190090 0.115750 -0.019522 -0.114245 -0.344653 -0.106805 0.095020 -0.092839 0.008402 -0.089826 0.072690 -0.029374 0.201796 0.047883 -0.071046 -0.050543 0.054045 -0.211118 0.121011 -0.224207 -0.032087 0.204283 0.014810 0.045918 0.053390 -0.031427 -0.004596 -0.077324 0.229673 0.052708 -0.044692 0.109968 -0.106989 -0.041213 -0.149799 -0.052283 -0.222565 -0.058840 0.168436 -0.041846 -0.059336 -0.236828 0.086419 -0.001380 -0.079442 0.020784 -0.011163 -0.121968 0.060323 -0.057841 0.091914 0.065364 0.087028 0.030301 -0.112524 -0.110205 -0.005239 -0.073266 0.122428 0.168311 0.080387 -0.161941 -0.040587 -0.010363 0.033861 0.035234 -0.009233 -0.027216 0.216397 0.043060 0.090379 0.073506 0.012127 -0.083580 0.040691 -0.107063 -0.173716 -0.008308 0.089899 0.004576 0.190417 0.016668 -0.257074 0.088418 0.099902 -0.035254 0.214634 -0.119104 0.099488 -0.091209 0.000880 -0.099493 -0.141488 0.113556 0.086457 0.375395 -0.032033 -0.180915 0.153083 -0.018733 0.078279 -0.011105 0.029842 -0.001060 -0.177146 -0.126875 -0.218919 0.186498 -0.109725 0.041114 -0.011437 0.235793 -0.223971 -0.150623 -0.073348 0.033991 -0.070776 0.050835 0.053438 0.077134 -0.020073 -0.070750 -0.068258 -0.042688 -0.020763 -0.056649 0.003229 0.008077 -0.241214 0.168912 -0.045488
has -0.027951 0.015588 -0.029175 -0.101809 0.070708 -0.058177 -0.060567 0.112936 0.061607 -0.139049 -0.155428 -0.139446 -0.053017 0.009231 0.006497 -0.032036 -0.136777 0.123054 -0.190895 -0.085772 0.120971 -0.016940 -0.069217 0.076748 0.022862 -0.029542 -0.014476 0.092103 -0.050455 0.125898 0.026959 0.035058 -0.038257 -0.035313 -0.087232 0.128494 0.245902 -0.073928 -0.008720 0.204199 0.085136 0.030389 0.081595 0.116080 0.072891 -0.179742 0.249702 0.069181 -0.117736 0.065657 -0.053511 -0.064495 0.234361 0.187226 -0.003283 -0.043913 0.154492 -0.295179 -0.244826 0.019724 -0.109400 -0.221145 -0.117253 0.050820 0.020963 0.018773 0.191800 -0.023940 -0.030119 -0.023146 -0.126830 -0.053449 0.076216 -0.048401 0.106180 -0.167762 0.151718 -0.044777 -0.219918 -0.150033 -0.148507 0.221498 0.055996 0.090814 0.096528 0.082660 0.210848 0.005374 0.119901 -0.142019 0.081747 -0.206488 -0.095097 0.043355 -0.093810 -0.213117 -0.056278 0.073728 0.022128 -0.087623 0.099140 -0.006633 -0.003627 0.155303 -0.024133 -0.123437 0.075544 0.044270 -0.461426 -0.045081 0.077590 -0.084577 -0.092911 -0.066349 0.029169 0.074654 0.056741 -0.088015 0.021826 0.079467 -0.069708 0.029120 0.056348 -0.107235 -0.215073 -0.034645 0.031281 -0.115743 0.177826 -0.052764 0.172309 0.168534 0.116589 -0.080262 0.188569 -0.014396 -0.247136 0.142209 0.072313 0.056404 -0.054306 -0.111966 0.046218 0.081462 0.128579 0.153185 -0.032113 0.139601 0.253098 0.062336 -0.006555 -0.200147 -0.085726 -0.030214 0.184268 -0.105291 -0.059332 0.138288 0.190585 0.256649 -0.218709 -0.054913 0.196254 0.092053 -0.047072 -0.037186 -0.103182 -0.109478 0.185675 0.106309 0.261577 -0.036960 -0.009902 -0.307321 -0.191456 0.201896 -0.054044 -0.023874 0.073937 0.031440 0.095965 0.174052 -0.131036 0.094018 -0.158322 0.090648 -0.082739 0.038669 -0.112992 -0.084047 0.030373 0.035360 -0.012794 -0.076447 -0.199148 -0.135858 -0.109999 0.052090 -0.018932 0.168228 0.049501 -0.067934 -0.141963 0.035498 0.084863 0.130274 0.093511 0.116576 -0.173947 0.143315 -0.076609 0.210112 -0.061797 -0.160329 -0.220632 -0.109471 -0.121799 0.059095 -0.169253 -0.050268 0.112794 0.020401 0.228488 -0.113818 0.016331 0.013150 -0.118313 0.055185 0.075756 -0.014531 -0.028138 -0.151565 -0.164877 0.043173 0.010178 0.027743 -0.149078 0.232017 0.077744 0.260591 -0.117409 0.174947 -0.070628 0.017624 -0.158132 -0.319864 0.038938 0.070461 0.124609 0.248962 -0.073602 -0.062350 0.093618 -0.065137 0.175061 0.314387 -0.189175 0.142236 -0.064883 -0.004458 -0.046513 -0.162013 0.046870 0.081413 0.323545 -0.022945 0.188686 0.068576 0.001059 -0.130591 0.010020 0.061509 0.088734 -0.107154 -0.171011 -0.087906 0.145508 -0.149216 -0.069102 0.038462 0.093399 -0.102383 -0.144514 -0.007988 0.127504 -0.041228 -0.106556 -0.030661 -0.054499 0.147973 -0.005806 0.096780 0.253785 -0.088561 0.015690 0.082125 -0.032262 0.001714 0.165176 0.186985
